<?xml version="1.0"?>
<NeuralNetwork>
	<Layer>
		<Node>
			<Theta>-0.16296682298592888</Theta>
			<Weight>0.08791610131227978</Weight>
			<Weight>-0.05778733271689035</Weight>
			<Weight>0.09445464210420777</Weight>
			<Weight>-0.051239949722927405</Weight>
			<Weight>0.18545123879547873</Weight>
			<Weight>0.019758826519477996</Weight>
			<Weight>-0.12072116733482749</Weight>
			<Weight>-0.0812270545561944</Weight>
			<Weight>-0.03790588979472121</Weight>
			<Weight>-0.035788585685994335</Weight>
			<Weight>-0.07705176909260508</Weight>
			<Weight>-0.1622031089664682</Weight>
			<Weight>0.17390985988748178</Weight>
			<Weight>0.06925026223045577</Weight>
			<Weight>-0.14306483517025712</Weight>
			<Weight>0.041948560388913196</Weight>
			<Weight>-0.059918957732423644</Weight>
			<Weight>0.10972288194613099</Weight>
			<Weight>0.09555038356953935</Weight>
			<Weight>0.08648964709822654</Weight>
			<Weight>0.00019741399029968187</Weight>
			<Weight>0.02839886232337808</Weight>
			<Weight>-0.05963722409593128</Weight>
			<Weight>-0.0692970823307486</Weight>
			<Weight>0.17322294253248757</Weight>
			<Weight>0.10765308695831464</Weight>
			<Weight>-0.20663925303310135</Weight>
		</Node>
		<Node>
			<Theta>-0.05155193329427116</Theta>
			<Weight>-0.01037615878989559</Weight>
			<Weight>-0.3404822798480613</Weight>
			<Weight>-0.022336006542016718</Weight>
			<Weight>0.07763394524393562</Weight>
			<Weight>-0.20132366520989264</Weight>
			<Weight>-0.17355759213240354</Weight>
			<Weight>-0.011840655402580563</Weight>
			<Weight>-0.13945260847786028</Weight>
			<Weight>-0.051285891332387555</Weight>
			<Weight>-0.17671851949991846</Weight>
			<Weight>0.11701799614863057</Weight>
			<Weight>0.030047629715879928</Weight>
			<Weight>0.03601620488622855</Weight>
			<Weight>-0.1347486783104901</Weight>
			<Weight>0.1284889762114739</Weight>
			<Weight>0.18854559980132654</Weight>
			<Weight>-0.04542339696324835</Weight>
			<Weight>0.05904010591681297</Weight>
			<Weight>0.19405095385465865</Weight>
			<Weight>0.002517755654948023</Weight>
			<Weight>-0.03001026264345941</Weight>
			<Weight>-0.02045097197664018</Weight>
			<Weight>-0.06129526996809134</Weight>
			<Weight>-0.26094601905179077</Weight>
			<Weight>0.07389117945960164</Weight>
			<Weight>0.1716285760355468</Weight>
			<Weight>0.2511538518666511</Weight>
		</Node>
		<Node>
			<Theta>-0.1637392792800106</Theta>
			<Weight>-0.02797578213216509</Weight>
			<Weight>-0.03431684674775176</Weight>
			<Weight>-0.00170940982662794</Weight>
			<Weight>0.14338511516257516</Weight>
			<Weight>-0.2086322652058533</Weight>
			<Weight>-0.10282840145759452</Weight>
			<Weight>-0.1068497979053135</Weight>
			<Weight>0.023291316753970864</Weight>
			<Weight>0.1149906986954173</Weight>
			<Weight>0.10435559574742098</Weight>
			<Weight>-0.11895932489247885</Weight>
			<Weight>0.14536693842648996</Weight>
			<Weight>0.10639359349482008</Weight>
			<Weight>-0.01092639681795865</Weight>
			<Weight>-0.0980699858864983</Weight>
			<Weight>-0.023729345195456365</Weight>
			<Weight>-0.13725143349566846</Weight>
			<Weight>-0.08362736990007952</Weight>
			<Weight>-0.11502912454482447</Weight>
			<Weight>-0.09416549337961652</Weight>
			<Weight>-0.058190903315201895</Weight>
			<Weight>-0.10419964058620354</Weight>
			<Weight>-0.11750245329296082</Weight>
			<Weight>-0.0524648873057562</Weight>
			<Weight>0.04165042962355925</Weight>
			<Weight>-0.09521037152419866</Weight>
			<Weight>0.10389280941800134</Weight>
		</Node>
		<Node>
			<Theta>-0.1915688901183159</Theta>
			<Weight>0.15130665836802132</Weight>
			<Weight>0.0882567134579963</Weight>
			<Weight>0.118432902293487</Weight>
			<Weight>0.0773173000140945</Weight>
			<Weight>-0.1018647435517277</Weight>
			<Weight>0.06903204338242086</Weight>
			<Weight>-0.03250539944039846</Weight>
			<Weight>0.07317238767974774</Weight>
			<Weight>-0.03759187440052559</Weight>
			<Weight>0.09778897120481107</Weight>
			<Weight>0.16939570622259809</Weight>
			<Weight>0.03347322377831324</Weight>
			<Weight>-0.08789125124481122</Weight>
			<Weight>-0.0601124658739946</Weight>
			<Weight>-0.11626809077767053</Weight>
			<Weight>-0.18683315649476714</Weight>
			<Weight>0.18008553966233026</Weight>
			<Weight>-0.1607296294051691</Weight>
			<Weight>-0.16142569956287678</Weight>
			<Weight>0.1873556729189113</Weight>
			<Weight>-0.06129248348501514</Weight>
			<Weight>-0.12464803224824336</Weight>
			<Weight>0.06914827979398319</Weight>
			<Weight>-0.10409592298204601</Weight>
			<Weight>-0.1544232021658805</Weight>
			<Weight>-0.12022330016265541</Weight>
			<Weight>0.16476610664507768</Weight>
		</Node>
		<Node>
			<Theta>0.04387069144425609</Theta>
			<Weight>0.12907495258261348</Weight>
			<Weight>-0.018745938746661386</Weight>
			<Weight>0.062462875038206946</Weight>
			<Weight>-0.19129495340647334</Weight>
			<Weight>-0.0030995923780326646</Weight>
			<Weight>0.10595654358333223</Weight>
			<Weight>0.037595603849011526</Weight>
			<Weight>0.1901108108276288</Weight>
			<Weight>0.017490391601951927</Weight>
			<Weight>0.01556593268304477</Weight>
			<Weight>0.0018609005906576326</Weight>
			<Weight>0.049910269068881054</Weight>
			<Weight>-0.02701157350987591</Weight>
			<Weight>0.009494705560948807</Weight>
			<Weight>-0.1551369955601915</Weight>
			<Weight>-0.046671270208893834</Weight>
			<Weight>-0.10108121073242873</Weight>
			<Weight>-0.16749058907292358</Weight>
			<Weight>0.13645343923773007</Weight>
			<Weight>0.004104905529483949</Weight>
			<Weight>0.056171745616006435</Weight>
			<Weight>-0.06718181835446052</Weight>
			<Weight>-0.06519834674191846</Weight>
			<Weight>-0.0234406471058258</Weight>
			<Weight>0.13843523902022195</Weight>
			<Weight>0.006942536590930588</Weight>
			<Weight>-0.241338511653252</Weight>
		</Node>
		<Node>
			<Theta>-0.07136233635327917</Theta>
			<Weight>0.11924587744335269</Weight>
			<Weight>-0.09332687075197253</Weight>
			<Weight>0.027552547094526723</Weight>
			<Weight>-0.11889615204226818</Weight>
			<Weight>-0.0489408945910583</Weight>
			<Weight>-0.1763240656115562</Weight>
			<Weight>-0.05507129248427399</Weight>
			<Weight>-0.09353598952084756</Weight>
			<Weight>0.04921794003868488</Weight>
			<Weight>0.09530318402781802</Weight>
			<Weight>0.06328060849406653</Weight>
			<Weight>0.19301566674575807</Weight>
			<Weight>0.14680497435523213</Weight>
			<Weight>0.11742403536069684</Weight>
			<Weight>0.06881285841420598</Weight>
			<Weight>-0.005376848224318357</Weight>
			<Weight>-0.10722897023718538</Weight>
			<Weight>-0.13168970796847979</Weight>
			<Weight>-0.07348109669489128</Weight>
			<Weight>0.1209298894948258</Weight>
			<Weight>0.04236795363713845</Weight>
			<Weight>-0.15592334765533708</Weight>
			<Weight>-0.11537495263888883</Weight>
			<Weight>-0.0655150822135661</Weight>
			<Weight>0.18787702540062617</Weight>
			<Weight>-0.17599657025133825</Weight>
			<Weight>0.1916751633314571</Weight>
		</Node>
		<Node>
			<Theta>-0.01746838209814257</Theta>
			<Weight>0.17439279483909909</Weight>
			<Weight>0.15496663830647903</Weight>
			<Weight>0.02115047059655969</Weight>
			<Weight>-0.04041068116136164</Weight>
			<Weight>0.27690622024560113</Weight>
			<Weight>-0.008568780187628106</Weight>
			<Weight>-0.14270727207679684</Weight>
			<Weight>0.1372552803177437</Weight>
			<Weight>0.13120946336073405</Weight>
			<Weight>-0.0454561149575403</Weight>
			<Weight>-0.1277370322112122</Weight>
			<Weight>0.07588328584327006</Weight>
			<Weight>-0.1237563745131057</Weight>
			<Weight>0.1839414221410402</Weight>
			<Weight>0.037036306244910694</Weight>
			<Weight>-0.075323192257201</Weight>
			<Weight>-0.01919558967924645</Weight>
			<Weight>-0.15569563703465164</Weight>
			<Weight>0.025629619031880903</Weight>
			<Weight>-0.050427235602782616</Weight>
			<Weight>0.12349551760942848</Weight>
			<Weight>0.100396096192661</Weight>
			<Weight>-0.10349951411411507</Weight>
			<Weight>0.33307358672087867</Weight>
			<Weight>-0.19644204263005885</Weight>
			<Weight>-0.12689748562556766</Weight>
			<Weight>-0.13710015159363484</Weight>
		</Node>
		<Node>
			<Theta>0.13434506178890873</Theta>
			<Weight>-0.13452319313938177</Weight>
			<Weight>-0.13536153061319833</Weight>
			<Weight>-0.13406267351149204</Weight>
			<Weight>0.14196173777597496</Weight>
			<Weight>-0.4831183874599447</Weight>
			<Weight>0.016848312471148347</Weight>
			<Weight>0.05859579970413003</Weight>
			<Weight>-0.14133671784062213</Weight>
			<Weight>-0.05754615563829092</Weight>
			<Weight>-0.026206609698580862</Weight>
			<Weight>0.1394826566849729</Weight>
			<Weight>0.24363635175332363</Weight>
			<Weight>-0.030297720747477695</Weight>
			<Weight>-0.09232164641174462</Weight>
			<Weight>-0.03665512615638777</Weight>
			<Weight>-0.16074713204314545</Weight>
			<Weight>0.18505269576424888</Weight>
			<Weight>-0.09655124342465306</Weight>
			<Weight>-0.10433701127554652</Weight>
			<Weight>-0.11373737840063637</Weight>
			<Weight>0.14111433806271165</Weight>
			<Weight>-0.18049983578032505</Weight>
			<Weight>0.0331008235122891</Weight>
			<Weight>-0.3195532586935404</Weight>
			<Weight>0.10073403010418182</Weight>
			<Weight>0.13225268645006097</Weight>
			<Weight>-0.00186933220307386</Weight>
		</Node>
		<Node>
			<Theta>0.2565264795150255</Theta>
			<Weight>-0.17094783168449793</Weight>
			<Weight>-0.3981320218237281</Weight>
			<Weight>0.029205064897236153</Weight>
			<Weight>0.3093140891411706</Weight>
			<Weight>-0.40189426590618244</Weight>
			<Weight>-0.127326280988304</Weight>
			<Weight>0.09879572654909453</Weight>
			<Weight>-0.4186909776111875</Weight>
			<Weight>-0.05001077791421886</Weight>
			<Weight>-0.27509177077841424</Weight>
			<Weight>0.11218057018824484</Weight>
			<Weight>0.28756731111049255</Weight>
			<Weight>0.036845158335573</Weight>
			<Weight>0.1537581213620106</Weight>
			<Weight>0.08526900116516821</Weight>
			<Weight>-0.1117872725711898</Weight>
			<Weight>-0.058146303705660596</Weight>
			<Weight>0.013001628176236416</Weight>
			<Weight>-0.11700135269233833</Weight>
			<Weight>-0.017095604209598686</Weight>
			<Weight>-0.135151782198995</Weight>
			<Weight>-0.17319261279628884</Weight>
			<Weight>-0.0690608851758853</Weight>
			<Weight>-0.46182066233699803</Weight>
			<Weight>-0.10449842887029638</Weight>
			<Weight>0.17817201625009174</Weight>
			<Weight>0.17832961552022358</Weight>
		</Node>
		<Node>
			<Theta>0.019364594225650896</Theta>
			<Weight>0.0774022176744198</Weight>
			<Weight>-0.33642352015341886</Weight>
			<Weight>0.15715251024331423</Weight>
			<Weight>0.1835740501155476</Weight>
			<Weight>-0.5193499687574018</Weight>
			<Weight>-0.029261175080678103</Weight>
			<Weight>0.25585105478581444</Weight>
			<Weight>-0.454076001402877</Weight>
			<Weight>-0.059154706761865634</Weight>
			<Weight>-0.09337762223528666</Weight>
			<Weight>0.16933070759422147</Weight>
			<Weight>0.11509837924023145</Weight>
			<Weight>-0.06042580997591264</Weight>
			<Weight>-0.08264795950968967</Weight>
			<Weight>-0.12082154186770491</Weight>
			<Weight>-0.11960514823324848</Weight>
			<Weight>0.14639796406635064</Weight>
			<Weight>-0.02717578023275724</Weight>
			<Weight>0.07968458815527238</Weight>
			<Weight>-0.09568979274476475</Weight>
			<Weight>-0.10536464059902775</Weight>
			<Weight>-0.047274882412738896</Weight>
			<Weight>-0.11702939084253731</Weight>
			<Weight>-0.2894545412675557</Weight>
			<Weight>0.15254042816033303</Weight>
			<Weight>0.20101346374159906</Weight>
			<Weight>0.06516338156488666</Weight>
		</Node>
		<Node>
			<Theta>0.14087208338850749</Theta>
			<Weight>0.00672326473205101</Weight>
			<Weight>-0.4067922834644983</Weight>
			<Weight>0.14017940081943148</Weight>
			<Weight>0.13272859158390715</Weight>
			<Weight>-0.29659196759137424</Weight>
			<Weight>0.12059066524567763</Weight>
			<Weight>0.2103347041779323</Weight>
			<Weight>-0.6131046945580354</Weight>
			<Weight>-0.1258899525292907</Weight>
			<Weight>-0.24394250051245178</Weight>
			<Weight>0.18370764267684297</Weight>
			<Weight>0.11957606419188166</Weight>
			<Weight>0.2058463935858902</Weight>
			<Weight>-0.09593743300758432</Weight>
			<Weight>0.17647844180697023</Weight>
			<Weight>-0.06897716973161151</Weight>
			<Weight>-0.1875415376448165</Weight>
			<Weight>0.03736062378520118</Weight>
			<Weight>0.01871720846066691</Weight>
			<Weight>-0.14535571712067233</Weight>
			<Weight>-0.08404177916843125</Weight>
			<Weight>0.054441493850419395</Weight>
			<Weight>0.14391740363640187</Weight>
			<Weight>-0.3873693751471203</Weight>
			<Weight>0.07662136472876238</Weight>
			<Weight>0.20064077494739774</Weight>
			<Weight>0.28755767712166885</Weight>
		</Node>
		<Node>
			<Theta>0.0036560924828088885</Theta>
			<Weight>0.10766207157428442</Weight>
			<Weight>-0.14371536532584006</Weight>
			<Weight>-0.12140388336146052</Weight>
			<Weight>0.10149581581539986</Weight>
			<Weight>-0.3843447682178118</Weight>
			<Weight>-0.044475947008206645</Weight>
			<Weight>0.09705788247274072</Weight>
			<Weight>-0.07085589348943114</Weight>
			<Weight>-0.2528666143253317</Weight>
			<Weight>-0.20668170781514617</Weight>
			<Weight>-0.12061868377781877</Weight>
			<Weight>0.14581086228630208</Weight>
			<Weight>0.16689321593712697</Weight>
			<Weight>-0.03763589923156105</Weight>
			<Weight>0.13985805029745416</Weight>
			<Weight>-0.05079506886676984</Weight>
			<Weight>-0.12492550378846098</Weight>
			<Weight>-0.11051730032840872</Weight>
			<Weight>0.15055171174962628</Weight>
			<Weight>0.05301867044424091</Weight>
			<Weight>0.18245365316401144</Weight>
			<Weight>0.10946111905129652</Weight>
			<Weight>-0.03612453219805892</Weight>
			<Weight>-0.21391291521085698</Weight>
			<Weight>0.06940187664090507</Weight>
			<Weight>0.17829795777743987</Weight>
			<Weight>0.2545338580422695</Weight>
		</Node>
		<Node>
			<Theta>0.11277337894078203</Theta>
			<Weight>-0.13447411939540205</Weight>
			<Weight>-0.17153770516775266</Weight>
			<Weight>-0.02999562060740369</Weight>
			<Weight>0.26723402626529413</Weight>
			<Weight>-0.3516576727555927</Weight>
			<Weight>-0.06663462426985105</Weight>
			<Weight>0.08963261329798056</Weight>
			<Weight>-0.28342166281974285</Weight>
			<Weight>-0.1828194425707592</Weight>
			<Weight>-0.2635599446853818</Weight>
			<Weight>-0.027985993360960415</Weight>
			<Weight>0.27200488659472605</Weight>
			<Weight>-0.12723180618203006</Weight>
			<Weight>-0.09988888756429658</Weight>
			<Weight>0.21394504054950275</Weight>
			<Weight>0.13048610590650506</Weight>
			<Weight>-0.13026741685209853</Weight>
			<Weight>0.12329958665209659</Weight>
			<Weight>0.16424416306289216</Weight>
			<Weight>0.16332359911436284</Weight>
			<Weight>0.03926472944958587</Weight>
			<Weight>0.03167525780827215</Weight>
			<Weight>0.09997443420579888</Weight>
			<Weight>-0.4453759110436388</Weight>
			<Weight>0.07384055427141813</Weight>
			<Weight>0.18190302639593334</Weight>
			<Weight>0.1985702980298838</Weight>
		</Node>
		<Node>
			<Theta>-0.13503061360798121</Theta>
			<Weight>0.0016439297959822963</Weight>
			<Weight>-0.2091345359854979</Weight>
			<Weight>0.06622736955555035</Weight>
			<Weight>0.12984919452746735</Weight>
			<Weight>-0.24794061027221978</Weight>
			<Weight>-0.06246247022991047</Weight>
			<Weight>-0.13886193397626828</Weight>
			<Weight>-0.2183299253102928</Weight>
			<Weight>-0.11564283508183813</Weight>
			<Weight>0.11712738697695728</Weight>
			<Weight>0.010761152786165379</Weight>
			<Weight>-0.09195547740047039</Weight>
			<Weight>0.028714723571663565</Weight>
			<Weight>0.1767497198570231</Weight>
			<Weight>0.10520385048522227</Weight>
			<Weight>0.18990797029531387</Weight>
			<Weight>0.1323658653209378</Weight>
			<Weight>0.05780294031170319</Weight>
			<Weight>0.050462698695129274</Weight>
			<Weight>-0.03909050419724608</Weight>
			<Weight>0.019471627232724758</Weight>
			<Weight>0.004675690364393133</Weight>
			<Weight>-0.12941311302273167</Weight>
			<Weight>0.0693101687535365</Weight>
			<Weight>0.021072417127351393</Weight>
			<Weight>0.02035661623364907</Weight>
			<Weight>0.026989455569768873</Weight>
		</Node>
		<Node>
			<Theta>-0.16078652626607942</Theta>
			<Weight>0.015847388457285116</Weight>
			<Weight>0.1870263845063751</Weight>
			<Weight>0.139224417122239</Weight>
			<Weight>-0.11421163280258075</Weight>
			<Weight>0.17405108806293362</Weight>
			<Weight>-0.15363358368116548</Weight>
			<Weight>0.0812900341551413</Weight>
			<Weight>0.2010774709698804</Weight>
			<Weight>0.10958517581026148</Weight>
			<Weight>0.19556379236925117</Weight>
			<Weight>-0.09218470271132975</Weight>
			<Weight>-0.08036988103113893</Weight>
			<Weight>0.1302466860098707</Weight>
			<Weight>-0.08582327655513962</Weight>
			<Weight>0.12819899330551707</Weight>
			<Weight>-0.16197660952577742</Weight>
			<Weight>0.10124454925112375</Weight>
			<Weight>-0.02568710054927907</Weight>
			<Weight>0.10368120583600096</Weight>
			<Weight>0.00797391752504445</Weight>
			<Weight>-0.07232016162390843</Weight>
			<Weight>0.11766156977203283</Weight>
			<Weight>-0.1282637361227817</Weight>
			<Weight>0.17454039477517025</Weight>
			<Weight>0.14537374168013772</Weight>
			<Weight>0.13108864062224687</Weight>
			<Weight>-0.09885941394929566</Weight>
		</Node>
		<Node>
			<Theta>-0.12975641767007</Theta>
			<Weight>-0.06380567912386659</Weight>
			<Weight>0.5506000522921661</Weight>
			<Weight>-0.24816130512467618</Weight>
			<Weight>-0.3407984928982353</Weight>
			<Weight>0.6204220074147708</Weight>
			<Weight>-0.1461904090435495</Weight>
			<Weight>-0.19817620940542488</Weight>
			<Weight>0.6324088321859643</Weight>
			<Weight>0.05433156131247815</Weight>
			<Weight>0.26669181123502234</Weight>
			<Weight>-0.1270637833732496</Weight>
			<Weight>-0.05373574424920217</Weight>
			<Weight>0.0065498828708872</Weight>
			<Weight>-0.04079357340720979</Weight>
			<Weight>-0.05699561412792748</Weight>
			<Weight>0.09069513121419662</Weight>
			<Weight>-0.08730711072571687</Weight>
			<Weight>-0.023045648084139225</Weight>
			<Weight>0.09325563684466039</Weight>
			<Weight>-0.03493932203836905</Weight>
			<Weight>-0.08387589265871376</Weight>
			<Weight>-0.004363731220395885</Weight>
			<Weight>-0.08191156267627449</Weight>
			<Weight>0.26338128402129807</Weight>
			<Weight>0.059767859160495755</Weight>
			<Weight>-0.2946227111260352</Weight>
			<Weight>-0.2784932841858411</Weight>
		</Node>
		<Node>
			<Theta>-0.07221775800228193</Theta>
			<Weight>-0.09569609181618106</Weight>
			<Weight>0.2180116415419811</Weight>
			<Weight>-0.19739511346305436</Weight>
			<Weight>-0.2079858086906628</Weight>
			<Weight>0.2985686749779386</Weight>
			<Weight>0.06627008261233852</Weight>
			<Weight>-0.05074381905962449</Weight>
			<Weight>0.4583034629462951</Weight>
			<Weight>0.27669794561928207</Weight>
			<Weight>0.008164754166198942</Weight>
			<Weight>0.10666311346820861</Weight>
			<Weight>-0.0022921029014218506</Weight>
			<Weight>0.09843105500516887</Weight>
			<Weight>-0.014490193580890098</Weight>
			<Weight>-0.07237516371106259</Weight>
			<Weight>-0.053855767657242336</Weight>
			<Weight>0.14062936415987165</Weight>
			<Weight>-0.1734946798369565</Weight>
			<Weight>0.04398787130237628</Weight>
			<Weight>0.014294162518797782</Weight>
			<Weight>-0.03407160756017377</Weight>
			<Weight>0.032541149673373834</Weight>
			<Weight>-0.0373471254994269</Weight>
			<Weight>0.2681075853515957</Weight>
			<Weight>0.13401089898714066</Weight>
			<Weight>-0.22489890784829897</Weight>
			<Weight>-0.05210621960115227</Weight>
		</Node>
		<Node>
			<Theta>0.020857687138778707</Theta>
			<Weight>0.08563020095624985</Weight>
			<Weight>-0.11246316039566763</Weight>
			<Weight>0.02631388541659342</Weight>
			<Weight>-0.041587234288608645</Weight>
			<Weight>-0.1421905073236755</Weight>
			<Weight>0.0612805334700009</Weight>
			<Weight>0.12063962026387799</Weight>
			<Weight>-0.007529328611171789</Weight>
			<Weight>0.05685721325895457</Weight>
			<Weight>-0.16639740804918174</Weight>
			<Weight>-0.18590939591516456</Weight>
			<Weight>-0.16568827274134101</Weight>
			<Weight>0.05555749813705815</Weight>
			<Weight>-0.08774360461137573</Weight>
			<Weight>-0.045388773718404</Weight>
			<Weight>0.021532251132684067</Weight>
			<Weight>-0.18723588662657106</Weight>
			<Weight>-0.10613069488299301</Weight>
			<Weight>-0.09985802712876743</Weight>
			<Weight>0.0632347023715768</Weight>
			<Weight>-0.035726405127303025</Weight>
			<Weight>-0.009384964060194775</Weight>
			<Weight>0.03759693903960734</Weight>
			<Weight>0.1832436724919441</Weight>
			<Weight>-0.0038759243373210238</Weight>
			<Weight>-0.03216157583734657</Weight>
			<Weight>0.07153312315173331</Weight>
		</Node>
		<Node>
			<Theta>-0.10507768776104907</Theta>
			<Weight>0.024180954202211224</Weight>
			<Weight>0.0342658095283596</Weight>
			<Weight>-0.031134461500306188</Weight>
			<Weight>-0.2629661581273573</Weight>
			<Weight>0.42376200097499545</Weight>
			<Weight>-0.13599406438537714</Weight>
			<Weight>-0.021060469094314443</Weight>
			<Weight>0.4309424878347776</Weight>
			<Weight>0.0930516677744023</Weight>
			<Weight>0.14167553844901523</Weight>
			<Weight>-0.17134381791856212</Weight>
			<Weight>-0.06573102753934862</Weight>
			<Weight>0.11616745981919328</Weight>
			<Weight>-0.12194644537863686</Weight>
			<Weight>-0.16540736508014486</Weight>
			<Weight>0.14453767365597922</Weight>
			<Weight>-0.17285029374932565</Weight>
			<Weight>-0.12029294278548862</Weight>
			<Weight>-0.15780460063179713</Weight>
			<Weight>-0.058188139744062034</Weight>
			<Weight>0.1283734170641012</Weight>
			<Weight>-0.12073648661429164</Weight>
			<Weight>-0.03878742609030378</Weight>
			<Weight>0.33123059107286573</Weight>
			<Weight>0.013575579108021506</Weight>
			<Weight>-0.07517497644008636</Weight>
			<Weight>-0.16000125378589292</Weight>
		</Node>
		<Node>
			<Theta>-0.246593578953412</Theta>
			<Weight>0.1459016832495108</Weight>
			<Weight>0.4057202985568046</Weight>
			<Weight>-0.10160817564800295</Weight>
			<Weight>-0.314033665849727</Weight>
			<Weight>0.6499873946371968</Weight>
			<Weight>-0.09579066073197269</Weight>
			<Weight>-0.09334602764668512</Weight>
			<Weight>0.6185577204908573</Weight>
			<Weight>0.3324987450288188</Weight>
			<Weight>0.040987415523072</Weight>
			<Weight>0.012664588366422841</Weight>
			<Weight>-0.30907244633600445</Weight>
			<Weight>-0.0784632840976996</Weight>
			<Weight>0.10356085154338501</Weight>
			<Weight>-0.08459882491934878</Weight>
			<Weight>0.13917903160734796</Weight>
			<Weight>0.09826962828479585</Weight>
			<Weight>-0.14743989495593243</Weight>
			<Weight>0.08972173494577919</Weight>
			<Weight>-0.08931008027827937</Weight>
			<Weight>-0.11311220812483642</Weight>
			<Weight>-0.19168364689481845</Weight>
			<Weight>-0.14728503087438294</Weight>
			<Weight>0.29780675835274456</Weight>
			<Weight>-0.09896767838132293</Weight>
			<Weight>-0.2049710994618687</Weight>
			<Weight>-0.2532635242377465</Weight>
		</Node>
		<Node>
			<Theta>-0.05514375629675663</Theta>
			<Weight>0.06364496852016338</Weight>
			<Weight>0.06766272056293579</Weight>
			<Weight>0.13689615577879027</Weight>
			<Weight>-0.16266300418193594</Weight>
			<Weight>0.23310201529812044</Weight>
			<Weight>0.15455902294030177</Weight>
			<Weight>0.05009978516441036</Weight>
			<Weight>0.4882778338639205</Weight>
			<Weight>-0.030642808202187777</Weight>
			<Weight>0.31558438649674936</Weight>
			<Weight>0.09477111559664392</Weight>
			<Weight>-0.20577479484375805</Weight>
			<Weight>0.1346988037017367</Weight>
			<Weight>0.0026478014341859146</Weight>
			<Weight>-0.0678635949031427</Weight>
			<Weight>-0.12388337138571212</Weight>
			<Weight>-0.14055691945036752</Weight>
			<Weight>-0.20494654943953455</Weight>
			<Weight>-0.17674707933342085</Weight>
			<Weight>-0.06845955143222339</Weight>
			<Weight>0.14445618480589087</Weight>
			<Weight>0.1606277094509699</Weight>
			<Weight>-0.13702445160040094</Weight>
			<Weight>0.07105761071126908</Weight>
			<Weight>-0.18705906002684167</Weight>
			<Weight>-0.07258455400421528</Weight>
			<Weight>-0.23771481875807543</Weight>
		</Node>
		<Node>
			<Theta>-0.15318141511085254</Theta>
			<Weight>-0.0962901596590424</Weight>
			<Weight>0.012782145944916657</Weight>
			<Weight>0.01657334100053942</Weight>
			<Weight>0.04694823419193049</Weight>
			<Weight>0.07431783192935786</Weight>
			<Weight>-0.185585800028792</Weight>
			<Weight>0.07508236782249088</Weight>
			<Weight>0.022247683522176025</Weight>
			<Weight>0.14318328608391756</Weight>
			<Weight>-0.013098491798428267</Weight>
			<Weight>0.08942684324111644</Weight>
			<Weight>-0.06847512247697009</Weight>
			<Weight>0.1819324769741185</Weight>
			<Weight>-0.052227025540903776</Weight>
			<Weight>-0.06761624528992742</Weight>
			<Weight>-0.13380121789547234</Weight>
			<Weight>0.025541700011051716</Weight>
			<Weight>-0.1476007646448735</Weight>
			<Weight>0.10945909856331787</Weight>
			<Weight>0.12257064937689915</Weight>
			<Weight>-0.17902112403910392</Weight>
			<Weight>0.13496066698923564</Weight>
			<Weight>-0.044440573888374635</Weight>
			<Weight>-0.17295834244653968</Weight>
			<Weight>-0.071804310280977</Weight>
			<Weight>-0.14459633208246758</Weight>
			<Weight>0.22202559923060752</Weight>
		</Node>
		<Node>
			<Theta>-0.1881783695835271</Theta>
			<Weight>-0.18388853843677855</Weight>
			<Weight>0.36664162952440255</Weight>
			<Weight>-0.2035136762356976</Weight>
			<Weight>-0.10449947689836855</Weight>
			<Weight>0.24662610475830887</Weight>
			<Weight>0.14287638719054113</Weight>
			<Weight>0.06417641084708331</Weight>
			<Weight>0.4283769075547294</Weight>
			<Weight>0.3330636649454612</Weight>
			<Weight>-0.0029563949105641347</Weight>
			<Weight>-0.1525778901917561</Weight>
			<Weight>-0.05122682273762937</Weight>
			<Weight>0.11126513755125757</Weight>
			<Weight>0.09363229349018776</Weight>
			<Weight>-0.20546103477766367</Weight>
			<Weight>-0.19604904513836752</Weight>
			<Weight>-0.16589764365707146</Weight>
			<Weight>-0.16378392614879445</Weight>
			<Weight>-0.05881746814842176</Weight>
			<Weight>0.16891418859224488</Weight>
			<Weight>0.0929844045003438</Weight>
			<Weight>0.010161238686836735</Weight>
			<Weight>-0.08945998690257993</Weight>
			<Weight>0.2884230750200438</Weight>
			<Weight>0.05502654298810738</Weight>
			<Weight>-0.16737800952370555</Weight>
			<Weight>-0.27149993761687746</Weight>
		</Node>
		<Node>
			<Theta>0.10097605788947743</Theta>
			<Weight>-0.06296898097534345</Weight>
			<Weight>0.1916976166137377</Weight>
			<Weight>-0.0759082184389427</Weight>
			<Weight>0.020121113631023316</Weight>
			<Weight>0.20776625886150282</Weight>
			<Weight>0.17296989431399973</Weight>
			<Weight>-0.07745857124051034</Weight>
			<Weight>0.30741777074123</Weight>
			<Weight>-0.02926694317050445</Weight>
			<Weight>-0.07050159810398036</Weight>
			<Weight>0.12280164969995866</Weight>
			<Weight>-0.1336453587931061</Weight>
			<Weight>-0.11192400551140273</Weight>
			<Weight>0.04880283477231864</Weight>
			<Weight>-0.1242281747733496</Weight>
			<Weight>0.084978984105208</Weight>
			<Weight>-0.04391932390518666</Weight>
			<Weight>-0.08465974748387069</Weight>
			<Weight>0.11726178512793974</Weight>
			<Weight>0.08533648579377334</Weight>
			<Weight>0.08700617073989626</Weight>
			<Weight>-0.13732567162752263</Weight>
			<Weight>0.14908375549020747</Weight>
			<Weight>0.342820133883454</Weight>
			<Weight>-0.06323915131906872</Weight>
			<Weight>-0.08420947930712536</Weight>
			<Weight>-0.04856742503889538</Weight>
		</Node>
		<Node>
			<Theta>-0.2176731138829844</Theta>
			<Weight>-0.1152821480276602</Weight>
			<Weight>0.280195812091833</Weight>
			<Weight>0.11699162937833604</Weight>
			<Weight>-0.30593523883501433</Weight>
			<Weight>0.4595271870626247</Weight>
			<Weight>-0.1563661504054079</Weight>
			<Weight>0.0405117211578641</Weight>
			<Weight>0.3735836944994541</Weight>
			<Weight>0.14152651665424626</Weight>
			<Weight>0.1514281440582085</Weight>
			<Weight>0.02115198868742954</Weight>
			<Weight>-0.09616145616695097</Weight>
			<Weight>-0.11330999449086605</Weight>
			<Weight>-0.11745125015626101</Weight>
			<Weight>-0.08659914725286509</Weight>
			<Weight>0.003560529148736282</Weight>
			<Weight>-0.0997464396928236</Weight>
			<Weight>0.02582505488880194</Weight>
			<Weight>-0.10569004808600407</Weight>
			<Weight>-0.07251921991723091</Weight>
			<Weight>-0.12236887574891599</Weight>
			<Weight>0.04787221034653154</Weight>
			<Weight>0.08963833541181337</Weight>
			<Weight>0.19883804448831513</Weight>
			<Weight>-0.1601765548100113</Weight>
			<Weight>-0.05743739408060069</Weight>
			<Weight>-0.24950010633341216</Weight>
		</Node>
		<Node>
			<Theta>-0.017683404638144693</Theta>
			<Weight>0.02314513179767122</Weight>
			<Weight>-0.23286618856347163</Weight>
			<Weight>0.17665847986816888</Weight>
			<Weight>-0.04192588554369066</Weight>
			<Weight>-0.34124797497278886</Weight>
			<Weight>-0.05325337785173126</Weight>
			<Weight>0.18610008341732953</Weight>
			<Weight>-0.16685424979572977</Weight>
			<Weight>0.029218935246384393</Weight>
			<Weight>-0.01428655457854343</Weight>
			<Weight>0.1162448696724428</Weight>
			<Weight>0.21655883420622724</Weight>
			<Weight>-0.14150861579201343</Weight>
			<Weight>-0.10956926451543118</Weight>
			<Weight>0.019072575313832715</Weight>
			<Weight>-0.12193672582850916</Weight>
			<Weight>0.08568043200622205</Weight>
			<Weight>0.03748442720989458</Weight>
			<Weight>0.04845195979383101</Weight>
			<Weight>-0.03488273115430088</Weight>
			<Weight>0.19059760919383958</Weight>
			<Weight>-0.014882905280853743</Weight>
			<Weight>0.1700227240455866</Weight>
			<Weight>-0.35930870578542595</Weight>
			<Weight>0.22721348999408078</Weight>
			<Weight>-0.05873510575901506</Weight>
			<Weight>0.19894161451379386</Weight>
		</Node>
		<Node>
			<Theta>-0.24608001254252412</Theta>
			<Weight>-0.08570029122838879</Weight>
			<Weight>0.29141423405781897</Weight>
			<Weight>0.032972862961834624</Weight>
			<Weight>-0.17421250987291617</Weight>
			<Weight>0.5650033217928896</Weight>
			<Weight>-0.09171716748315861</Weight>
			<Weight>0.09120645780173053</Weight>
			<Weight>0.5801459848228532</Weight>
			<Weight>0.2947337258294711</Weight>
			<Weight>0.04494807880171397</Weight>
			<Weight>0.1801992550510953</Weight>
			<Weight>-0.2674276277182524</Weight>
			<Weight>-0.1481125633522803</Weight>
			<Weight>0.08136963703336964</Weight>
			<Weight>-0.16039128411418574</Weight>
			<Weight>-0.20271512164072925</Weight>
			<Weight>-0.1076165218823998</Weight>
			<Weight>0.08740029556173128</Weight>
			<Weight>0.13861273279027667</Weight>
			<Weight>0.006106594272090454</Weight>
			<Weight>-0.17764153918348358</Weight>
			<Weight>-0.044353713145773355</Weight>
			<Weight>0.10476114844179724</Weight>
			<Weight>0.31236585824547586</Weight>
			<Weight>-0.02698818701318532</Weight>
			<Weight>-0.18340509436919222</Weight>
			<Weight>-0.20363715625036946</Weight>
		</Node>
		<Node>
			<Theta>-0.03637160276988831</Theta>
			<Weight>0.10196333038796601</Weight>
			<Weight>0.02345707597212824</Weight>
			<Weight>-0.10717535533633714</Weight>
			<Weight>0.12165800796994083</Weight>
			<Weight>-0.08636556293512321</Weight>
			<Weight>-0.061244256589489926</Weight>
			<Weight>0.015173501372796655</Weight>
			<Weight>-0.12282531686448858</Weight>
			<Weight>-0.12543926971661723</Weight>
			<Weight>-0.1588429954385593</Weight>
			<Weight>0.16480100358337457</Weight>
			<Weight>0.042446143153195615</Weight>
			<Weight>0.1353032242268972</Weight>
			<Weight>0.1804634736302448</Weight>
			<Weight>-0.1542383641357128</Weight>
			<Weight>0.1344809911704029</Weight>
			<Weight>-0.025460714347219915</Weight>
			<Weight>-0.11476861388541247</Weight>
			<Weight>-0.13495297469560835</Weight>
			<Weight>-0.0423252712184099</Weight>
			<Weight>0.08026510344859329</Weight>
			<Weight>0.025586816985438528</Weight>
			<Weight>-0.09401956147400532</Weight>
			<Weight>-0.20956831832286804</Weight>
			<Weight>-0.1521122863482505</Weight>
			<Weight>0.10634522725400672</Weight>
			<Weight>0.22295501664598055</Weight>
		</Node>
		<Node>
			<Theta>-0.08763390589165766</Theta>
			<Weight>0.033388197206096204</Weight>
			<Weight>-0.4124015288551215</Weight>
			<Weight>0.1994366156891025</Weight>
			<Weight>0.193575425997175</Weight>
			<Weight>-0.41003028765255356</Weight>
			<Weight>-0.12480450679002601</Weight>
			<Weight>0.165221324155437</Weight>
			<Weight>-0.3820651635239101</Weight>
			<Weight>-0.024239877465811483</Weight>
			<Weight>-0.12812009085465512</Weight>
			<Weight>-0.1273814260952365</Weight>
			<Weight>-0.0032849378020605047</Weight>
			<Weight>0.13717706885154868</Weight>
			<Weight>0.13173457117575993</Weight>
			<Weight>-0.11094467005726846</Weight>
			<Weight>0.01699575031304201</Weight>
			<Weight>0.16593040302263334</Weight>
			<Weight>-0.018686433696651444</Weight>
			<Weight>0.11575865723912376</Weight>
			<Weight>-0.0001281155195137218</Weight>
			<Weight>-0.1225353469739763</Weight>
			<Weight>-0.08851228442917465</Weight>
			<Weight>-0.16739285215727506</Weight>
			<Weight>-0.27953159660085997</Weight>
			<Weight>-0.06668843697338797</Weight>
			<Weight>0.2671861660747988</Weight>
			<Weight>0.058297229164965346</Weight>
		</Node>
		<Node>
			<Theta>-0.1808098933731392</Theta>
			<Weight>-0.08323488411449606</Weight>
			<Weight>0.3361393636954068</Weight>
			<Weight>-0.17623116146201337</Weight>
			<Weight>-0.14047640677353102</Weight>
			<Weight>0.31439287716980946</Weight>
			<Weight>-0.025920620736884226</Weight>
			<Weight>-0.04378811930840456</Weight>
			<Weight>0.2688479074383871</Weight>
			<Weight>0.0017849426747046013</Weight>
			<Weight>0.17893940284326212</Weight>
			<Weight>-0.0033108678798562108</Weight>
			<Weight>-0.19788536219557581</Weight>
			<Weight>-0.0918377560607049</Weight>
			<Weight>0.09917068060558598</Weight>
			<Weight>0.048535389871275904</Weight>
			<Weight>-0.1909177089231468</Weight>
			<Weight>-0.06563621837231282</Weight>
			<Weight>-0.03879578733063406</Weight>
			<Weight>0.17103951321356559</Weight>
			<Weight>0.015053820130738998</Weight>
			<Weight>0.14582919736567038</Weight>
			<Weight>-0.049936256632465835</Weight>
			<Weight>-0.1414718296800741</Weight>
			<Weight>0.20287184308995967</Weight>
			<Weight>-0.16889476323017025</Weight>
			<Weight>-0.12216141214783698</Weight>
			<Weight>-0.1309187985688971</Weight>
		</Node>
		<Node>
			<Theta>0.10848935619983666</Theta>
			<Weight>-0.09315904185438101</Weight>
			<Weight>0.03968583264709706</Weight>
			<Weight>-0.22169281418846049</Weight>
			<Weight>-0.08521649344449198</Weight>
			<Weight>0.36766844474997995</Weight>
			<Weight>-0.08928956468108598</Weight>
			<Weight>-0.16091929011826533</Weight>
			<Weight>0.2857875115993481</Weight>
			<Weight>0.0835384802044743</Weight>
			<Weight>0.07544377820107916</Weight>
			<Weight>-0.1003703668586486</Weight>
			<Weight>-0.23462475903218508</Weight>
			<Weight>-0.19870863579622397</Weight>
			<Weight>-0.04060648566478517</Weight>
			<Weight>-0.1284607138403987</Weight>
			<Weight>-0.006096421863052986</Weight>
			<Weight>-0.007629529933977752</Weight>
			<Weight>-0.20668133999422425</Weight>
			<Weight>0.14605781267693538</Weight>
			<Weight>0.09440441307064301</Weight>
			<Weight>-0.09670491309387053</Weight>
			<Weight>0.02686390180298978</Weight>
			<Weight>0.16389813847153345</Weight>
			<Weight>0.2870187751950626</Weight>
			<Weight>-0.17513582246854087</Weight>
			<Weight>0.07258169912247144</Weight>
			<Weight>-0.2889914687250897</Weight>
		</Node>
		<Node>
			<Theta>-0.04944762578736259</Theta>
			<Weight>0.17358644885698848</Weight>
			<Weight>0.3264453468594427</Weight>
			<Weight>-0.20130768946993044</Weight>
			<Weight>-0.15944735502880988</Weight>
			<Weight>0.181176042276531</Weight>
			<Weight>-0.026533663237627098</Weight>
			<Weight>0.039432922168166365</Weight>
			<Weight>0.38396097926166567</Weight>
			<Weight>-0.1198980695152858</Weight>
			<Weight>0.1654952378571045</Weight>
			<Weight>-0.11613362964433566</Weight>
			<Weight>-0.06707299043946366</Weight>
			<Weight>-0.20719984363921873</Weight>
			<Weight>-0.053481354271461085</Weight>
			<Weight>0.015621357318329903</Weight>
			<Weight>-0.1881230487322191</Weight>
			<Weight>-0.17350485022046877</Weight>
			<Weight>-0.16757270862818108</Weight>
			<Weight>0.09547299775384457</Weight>
			<Weight>0.13957265350641374</Weight>
			<Weight>0.09497915884598121</Weight>
			<Weight>0.03005675256815861</Weight>
			<Weight>0.11435701888943861</Weight>
			<Weight>0.35660454403131747</Weight>
			<Weight>-0.005772818767895242</Weight>
			<Weight>-0.051465131287992696</Weight>
			<Weight>-0.15720920224879928</Weight>
		</Node>
		<Node>
			<Theta>-0.11849817784288509</Theta>
			<Weight>-0.15443658442311586</Weight>
			<Weight>0.05818768302090031</Weight>
			<Weight>0.14479695944995036</Weight>
			<Weight>-0.04580206473897241</Weight>
			<Weight>0.3599928880693814</Weight>
			<Weight>-0.1396138039469126</Weight>
			<Weight>-0.12585683774979287</Weight>
			<Weight>0.08631215727545948</Weight>
			<Weight>0.1363880531259179</Weight>
			<Weight>-0.07013976494110549</Weight>
			<Weight>0.0541372034580575</Weight>
			<Weight>-0.17798617565601982</Weight>
			<Weight>-0.0037183766718174036</Weight>
			<Weight>-0.08034830815244329</Weight>
			<Weight>-0.19605810198939405</Weight>
			<Weight>-0.07916455270599956</Weight>
			<Weight>-0.14850480382270442</Weight>
			<Weight>0.1473752201553409</Weight>
			<Weight>0.015579694294188205</Weight>
			<Weight>-0.15509776206169534</Weight>
			<Weight>-0.1344227682125554</Weight>
			<Weight>0.0017879695572884733</Weight>
			<Weight>-0.03353234790548909</Weight>
			<Weight>0.13527052866589523</Weight>
			<Weight>0.05448569420564899</Weight>
			<Weight>0.08462020317690364</Weight>
			<Weight>-0.3031761112492457</Weight>
		</Node>
		<Node>
			<Theta>-0.02097937002052853</Theta>
			<Weight>-0.034666330335218376</Weight>
			<Weight>0.029116851544844533</Weight>
			<Weight>0.0161373306230109</Weight>
			<Weight>-0.028450463863879467</Weight>
			<Weight>-0.06629408308682615</Weight>
			<Weight>-0.06752024656230726</Weight>
			<Weight>0.11461705620576658</Weight>
			<Weight>-0.052279279342615</Weight>
			<Weight>-0.0064005235800273395</Weight>
			<Weight>0.058453879506454025</Weight>
			<Weight>0.0345361138647845</Weight>
			<Weight>-0.10191002854849614</Weight>
			<Weight>0.18752016711602673</Weight>
			<Weight>0.08768150009568909</Weight>
			<Weight>-0.17271622386841937</Weight>
			<Weight>-0.015905800770645268</Weight>
			<Weight>-0.1365132858247361</Weight>
			<Weight>-0.16864255794238123</Weight>
			<Weight>0.1889469923675293</Weight>
			<Weight>0.15228399886256888</Weight>
			<Weight>0.12894855525923118</Weight>
			<Weight>0.13007985565328892</Weight>
			<Weight>0.18006908786091236</Weight>
			<Weight>0.005575918782031999</Weight>
			<Weight>-0.045792693752423765</Weight>
			<Weight>-0.005317411191908429</Weight>
			<Weight>0.16898414040341242</Weight>
		</Node>
		<Node>
			<Theta>0.18301512744200527</Theta>
			<Weight>-0.0012990394170768749</Weight>
			<Weight>-0.33121567983973677</Weight>
			<Weight>0.13942964672209796</Weight>
			<Weight>0.19897980389146674</Weight>
			<Weight>-0.3888954203022331</Weight>
			<Weight>0.16392445743004036</Weight>
			<Weight>0.17880881095626397</Weight>
			<Weight>-0.5123229846942027</Weight>
			<Weight>-0.06341343381434965</Weight>
			<Weight>-0.2441669040834401</Weight>
			<Weight>-0.10417610613317535</Weight>
			<Weight>0.18009942795172884</Weight>
			<Weight>0.218210136499217</Weight>
			<Weight>-0.06777971072146413</Weight>
			<Weight>0.2348994541976062</Weight>
			<Weight>-0.10953869460955039</Weight>
			<Weight>0.08743194254373815</Weight>
			<Weight>-0.1337068934481028</Weight>
			<Weight>-0.020116094886141654</Weight>
			<Weight>0.042515578646370344</Weight>
			<Weight>-0.15718539670424417</Weight>
			<Weight>-0.023512412943678812</Weight>
			<Weight>0.09454914788532814</Weight>
			<Weight>-0.4548639096766957</Weight>
			<Weight>-0.03361151883805499</Weight>
			<Weight>0.1961325231451831</Weight>
			<Weight>0.1765765842267898</Weight>
		</Node>
		<Node>
			<Theta>-0.2257392421583594</Theta>
			<Weight>-0.15333920357785055</Weight>
			<Weight>0.1719590872340676</Weight>
			<Weight>-0.17895809259279438</Weight>
			<Weight>-0.2854414774071268</Weight>
			<Weight>0.42895249696583626</Weight>
			<Weight>0.08081041175690218</Weight>
			<Weight>-0.0007844827537175272</Weight>
			<Weight>0.4764675303595827</Weight>
			<Weight>0.02659016648514246</Weight>
			<Weight>0.27809073626971753</Weight>
			<Weight>0.1619279018445547</Weight>
			<Weight>0.07659222410255852</Weight>
			<Weight>-0.21705942781966878</Weight>
			<Weight>-0.09317818510246051</Weight>
			<Weight>-0.11131927747838248</Weight>
			<Weight>0.05132831401548194</Weight>
			<Weight>-0.1686953896052032</Weight>
			<Weight>-0.20511719426039665</Weight>
			<Weight>0.028446998348545048</Weight>
			<Weight>0.06927250187909934</Weight>
			<Weight>-0.06575276045579061</Weight>
			<Weight>0.09223947319217232</Weight>
			<Weight>-0.17570200460074376</Weight>
			<Weight>0.3538567871089001</Weight>
			<Weight>-0.1533372079597771</Weight>
			<Weight>-0.05482379119724863</Weight>
			<Weight>-0.30198403902840215</Weight>
		</Node>
		<Node>
			<Theta>-0.10453795716984605</Theta>
			<Weight>-0.020451858695013647</Weight>
			<Weight>0.31245572377367903</Weight>
			<Weight>-0.19898816746136774</Weight>
			<Weight>0.026867784754311032</Weight>
			<Weight>0.3662154974838158</Weight>
			<Weight>-0.15969545860829498</Weight>
			<Weight>-0.12002436017915251</Weight>
			<Weight>0.44762052140515696</Weight>
			<Weight>0.028827499506942664</Weight>
			<Weight>0.06434865544544995</Weight>
			<Weight>-0.1869598684467448</Weight>
			<Weight>0.045828599786966226</Weight>
			<Weight>-0.1743945356802454</Weight>
			<Weight>0.1486808588316103</Weight>
			<Weight>-0.05052900125090913</Weight>
			<Weight>-0.04691990165360951</Weight>
			<Weight>0.08733039281813482</Weight>
			<Weight>-0.2051840760805832</Weight>
			<Weight>0.17554995106596907</Weight>
			<Weight>0.11139483522926352</Weight>
			<Weight>-0.156181343322491</Weight>
			<Weight>-0.126721992467343</Weight>
			<Weight>-0.10252758791675703</Weight>
			<Weight>0.33208610617271106</Weight>
			<Weight>-0.1740741011274648</Weight>
			<Weight>0.001176586406561912</Weight>
			<Weight>-0.32959341640933615</Weight>
		</Node>
		<Node>
			<Theta>0.0543817272277819</Theta>
			<Weight>-0.1501839436597895</Weight>
			<Weight>-0.45726106713619674</Weight>
			<Weight>-0.12610685532546423</Weight>
			<Weight>0.18712765252241165</Weight>
			<Weight>-0.32367109135961586</Weight>
			<Weight>0.055252660596599</Weight>
			<Weight>-0.07686207971963029</Weight>
			<Weight>-0.4135703138245859</Weight>
			<Weight>0.009070241277823365</Weight>
			<Weight>-0.14062605626244148</Weight>
			<Weight>-0.1375121180698977</Weight>
			<Weight>0.102475393330157</Weight>
			<Weight>-0.04410226242978563</Weight>
			<Weight>0.1774720247912115</Weight>
			<Weight>0.10120177057959776</Weight>
			<Weight>0.049088356375552984</Weight>
			<Weight>-0.13643207104198984</Weight>
			<Weight>-0.06067656108888474</Weight>
			<Weight>-0.04702625853480295</Weight>
			<Weight>0.12069305067124975</Weight>
			<Weight>-0.06488769105243863</Weight>
			<Weight>-0.11345322990858896</Weight>
			<Weight>-0.01993083358147335</Weight>
			<Weight>-0.3234081322143522</Weight>
			<Weight>0.08254205257471034</Weight>
			<Weight>0.09429754911346563</Weight>
			<Weight>0.3361423612239665</Weight>
		</Node>
		<Node>
			<Theta>0.16782778786016034</Theta>
			<Weight>-0.05625331134298134</Weight>
			<Weight>0.04262954592445776</Weight>
			<Weight>-0.09681384249779235</Weight>
			<Weight>-0.11792867185638065</Weight>
			<Weight>-0.04644513746639789</Weight>
			<Weight>-0.04396789783489269</Weight>
			<Weight>0.08059199831355918</Weight>
			<Weight>-0.010340012670175513</Weight>
			<Weight>0.17871194809011584</Weight>
			<Weight>0.09679403975670767</Weight>
			<Weight>0.16358061688501024</Weight>
			<Weight>0.16621167639263879</Weight>
			<Weight>0.0773724746758183</Weight>
			<Weight>-0.1473782477068195</Weight>
			<Weight>-0.07390705533910405</Weight>
			<Weight>-0.15647463662715946</Weight>
			<Weight>0.09067967283548706</Weight>
			<Weight>-0.11436903583313489</Weight>
			<Weight>0.04624943248252181</Weight>
			<Weight>0.058142986952782416</Weight>
			<Weight>-0.06873622326907906</Weight>
			<Weight>0.15162332211760338</Weight>
			<Weight>-0.02907847467575131</Weight>
			<Weight>0.07583363446581715</Weight>
			<Weight>-0.18547224607916796</Weight>
			<Weight>-0.06770495439251674</Weight>
			<Weight>-0.005102019250555487</Weight>
		</Node>
		<Node>
			<Theta>-0.011852663249792382</Theta>
			<Weight>-0.05664752521707417</Weight>
			<Weight>0.2964745569365718</Weight>
			<Weight>-0.1545245491447524</Weight>
			<Weight>-0.14560567343436756</Weight>
			<Weight>0.3435891187745729</Weight>
			<Weight>0.11931243518398055</Weight>
			<Weight>-0.005430112685266764</Weight>
			<Weight>0.45963474508706426</Weight>
			<Weight>0.04658784340642425</Weight>
			<Weight>0.11535067065940899</Weight>
			<Weight>0.12518651375317097</Weight>
			<Weight>-0.2227672015999997</Weight>
			<Weight>0.0857236206361571</Weight>
			<Weight>-0.10037845697303341</Weight>
			<Weight>-0.18336623781965872</Weight>
			<Weight>0.09083051299920201</Weight>
			<Weight>-0.0946249254263439</Weight>
			<Weight>-0.19570372127977256</Weight>
			<Weight>-0.11504435965713894</Weight>
			<Weight>0.016267599154671214</Weight>
			<Weight>-0.034640739106676456</Weight>
			<Weight>-0.1768836501309529</Weight>
			<Weight>0.0016290880869888336</Weight>
			<Weight>0.08637879541456772</Weight>
			<Weight>-0.16920003876526904</Weight>
			<Weight>-0.0245459172498118</Weight>
			<Weight>-0.2162988492691527</Weight>
		</Node>
		<Node>
			<Theta>-0.13102425675798612</Theta>
			<Weight>-0.1567356484282508</Weight>
			<Weight>-0.30485288327124926</Weight>
			<Weight>-0.11116273772571515</Weight>
			<Weight>-0.01894935283612442</Weight>
			<Weight>-0.381606191418371</Weight>
			<Weight>-0.12635985564145635</Weight>
			<Weight>-7.815950351549766e-05</Weight>
			<Weight>-0.14948974733327833</Weight>
			<Weight>-0.14674010628215042</Weight>
			<Weight>-0.07659129719034037</Weight>
			<Weight>-0.12214940640289615</Weight>
			<Weight>0.13736509572845237</Weight>
			<Weight>-0.0846519929091736</Weight>
			<Weight>0.1728235002478507</Weight>
			<Weight>0.10166510361951794</Weight>
			<Weight>0.05648910790385967</Weight>
			<Weight>0.08102714286473212</Weight>
			<Weight>0.13328509128832985</Weight>
			<Weight>-0.174721651831713</Weight>
			<Weight>-0.10752507258512468</Weight>
			<Weight>0.034265880856979326</Weight>
			<Weight>-0.04551714624210775</Weight>
			<Weight>0.11622859701178273</Weight>
			<Weight>-0.20306702184052308</Weight>
			<Weight>0.21441606440515878</Weight>
			<Weight>0.14176458651263005</Weight>
			<Weight>0.2752890471066847</Weight>
		</Node>
		<Node>
			<Theta>0.019951926038383416</Theta>
			<Weight>-0.09432347984227096</Weight>
			<Weight>0.1265339766862601</Weight>
			<Weight>0.0864681621164987</Weight>
			<Weight>-0.18974173480345838</Weight>
			<Weight>0.23702275847081553</Weight>
			<Weight>-0.07568982525864643</Weight>
			<Weight>-0.025970348859373014</Weight>
			<Weight>0.08706082214033715</Weight>
			<Weight>0.010946553881724256</Weight>
			<Weight>0.14866769458915466</Weight>
			<Weight>0.08902041943581657</Weight>
			<Weight>-0.11458293551197596</Weight>
			<Weight>-0.01574438525358481</Weight>
			<Weight>-0.16210443694802354</Weight>
			<Weight>-0.03601973694560117</Weight>
			<Weight>0.02817891923457464</Weight>
			<Weight>-0.03898844381227626</Weight>
			<Weight>-0.051942117338343155</Weight>
			<Weight>-0.024727371385280538</Weight>
			<Weight>-0.06773929110878017</Weight>
			<Weight>-0.16968709537886226</Weight>
			<Weight>0.008558573130885656</Weight>
			<Weight>0.06300507456460935</Weight>
			<Weight>0.1984356474626378</Weight>
			<Weight>-0.1284905574763594</Weight>
			<Weight>-0.21590374951565253</Weight>
			<Weight>0.02163430467489261</Weight>
		</Node>
		<Node>
			<Theta>0.07884517223068171</Theta>
			<Weight>0.07724196139379691</Weight>
			<Weight>-0.03516286596105338</Weight>
			<Weight>0.09696234346028913</Weight>
			<Weight>0.20728983782038593</Weight>
			<Weight>-0.22679540699019604</Weight>
			<Weight>-0.08066294617071441</Weight>
			<Weight>0.19879663170758277</Weight>
			<Weight>0.01339896660956938</Weight>
			<Weight>-0.0281158657527021</Weight>
			<Weight>0.1211177738859211</Weight>
			<Weight>0.009094243485368525</Weight>
			<Weight>0.11211520142351786</Weight>
			<Weight>0.13675494878901284</Weight>
			<Weight>0.08445006246525133</Weight>
			<Weight>0.02911930353381235</Weight>
			<Weight>0.1399905660000173</Weight>
			<Weight>0.14077524867565927</Weight>
			<Weight>0.05962339301948523</Weight>
			<Weight>0.06709950362786923</Weight>
			<Weight>-0.1548578709547231</Weight>
			<Weight>0.02350930865443751</Weight>
			<Weight>0.04532314469871395</Weight>
			<Weight>-0.15289611020024707</Weight>
			<Weight>-0.0014022857493513263</Weight>
			<Weight>-0.021202548788654376</Weight>
			<Weight>-0.07104100870739405</Weight>
			<Weight>0.11543663353374235</Weight>
		</Node>
		<Node>
			<Theta>0.1278860117547612</Theta>
			<Weight>0.10071820795453118</Weight>
			<Weight>0.13343856459036704</Weight>
			<Weight>-0.15078552951580768</Weight>
			<Weight>0.19106985132241536</Weight>
			<Weight>0.09843092827736366</Weight>
			<Weight>-0.029207387462865303</Weight>
			<Weight>0.10422529664371499</Weight>
			<Weight>0.11144691124241993</Weight>
			<Weight>0.06422136252855293</Weight>
			<Weight>0.18838551790331326</Weight>
			<Weight>-0.04259734927235148</Weight>
			<Weight>-0.03979990554418938</Weight>
			<Weight>-0.04469912586147677</Weight>
			<Weight>0.11925225665272082</Weight>
			<Weight>0.1258374974099601</Weight>
			<Weight>0.005779564666951881</Weight>
			<Weight>0.14223355871024707</Weight>
			<Weight>0.12089407678774375</Weight>
			<Weight>-0.1434609336353116</Weight>
			<Weight>-0.17102011589786337</Weight>
			<Weight>-0.17252289111014973</Weight>
			<Weight>-0.039537754936923616</Weight>
			<Weight>0.07920186773054372</Weight>
			<Weight>-0.013190428553046286</Weight>
			<Weight>0.00915045191826893</Weight>
			<Weight>0.06636521027655055</Weight>
			<Weight>-0.03670131297933629</Weight>
		</Node>
		<Node>
			<Theta>-0.11953330533525293</Theta>
			<Weight>0.05781699950857824</Weight>
			<Weight>0.007201712905934437</Weight>
			<Weight>0.011618732240050191</Weight>
			<Weight>-0.19827824298372285</Weight>
			<Weight>0.24854214062853427</Weight>
			<Weight>-0.09145894339789176</Weight>
			<Weight>-0.0016557824542190768</Weight>
			<Weight>0.27231466781232905</Weight>
			<Weight>-0.08788715480678191</Weight>
			<Weight>0.09285700202680006</Weight>
			<Weight>0.09912046812789416</Weight>
			<Weight>0.0231751295108071</Weight>
			<Weight>0.03646593193119751</Weight>
			<Weight>-0.08810119068572987</Weight>
			<Weight>-0.036180024323472205</Weight>
			<Weight>-0.13703771667895318</Weight>
			<Weight>-0.04794814407728254</Weight>
			<Weight>-0.007573153477042594</Weight>
			<Weight>-0.026460257935578692</Weight>
			<Weight>0.12310333448269445</Weight>
			<Weight>0.07105378616427777</Weight>
			<Weight>-0.0920422870450361</Weight>
			<Weight>-0.009312175819277152</Weight>
			<Weight>0.3087350392082895</Weight>
			<Weight>0.13563279462840067</Weight>
			<Weight>-0.10276431941682049</Weight>
			<Weight>0.03368421210634784</Weight>
		</Node>
		<Node>
			<Theta>-0.029994581733394116</Theta>
			<Weight>-0.10506585673228408</Weight>
			<Weight>-0.16972922414939937</Weight>
			<Weight>-0.0683828859243068</Weight>
			<Weight>0.19117245745919756</Weight>
			<Weight>-0.13152513483049175</Weight>
			<Weight>0.037682534954196656</Weight>
			<Weight>0.030239581769469122</Weight>
			<Weight>-0.2888669978336678</Weight>
			<Weight>-0.0008289993709690071</Weight>
			<Weight>0.07381290134659192</Weight>
			<Weight>0.041229631020281154</Weight>
			<Weight>0.09848032395290217</Weight>
			<Weight>-0.1380521664673706</Weight>
			<Weight>0.17331755061339277</Weight>
			<Weight>0.07727808324975034</Weight>
			<Weight>-0.10954104722515665</Weight>
			<Weight>0.0818308711609615</Weight>
			<Weight>0.053015760396826955</Weight>
			<Weight>-0.1453850240968368</Weight>
			<Weight>-0.16844671812581258</Weight>
			<Weight>-0.0409671404876209</Weight>
			<Weight>-0.07363387806583682</Weight>
			<Weight>0.18416522878040326</Weight>
			<Weight>-0.26288424017870277</Weight>
			<Weight>0.09470027789774328</Weight>
			<Weight>0.010556074623096939</Weight>
			<Weight>0.07449717889590059</Weight>
		</Node>
		<Node>
			<Theta>0.09750559194594248</Theta>
			<Weight>-0.09119593684729911</Weight>
			<Weight>-0.12029934496412528</Weight>
			<Weight>-0.029425982053000024</Weight>
			<Weight>-0.03920526338057534</Weight>
			<Weight>-0.25082491082773395</Weight>
			<Weight>0.11759726103063212</Weight>
			<Weight>0.067481966581292</Weight>
			<Weight>-0.3366818494041924</Weight>
			<Weight>0.03643217653482761</Weight>
			<Weight>-0.02878908348475668</Weight>
			<Weight>-0.1791270118715582</Weight>
			<Weight>-0.08621374180971772</Weight>
			<Weight>-0.0667380070256665</Weight>
			<Weight>0.02596336045062192</Weight>
			<Weight>-0.045815399888680816</Weight>
			<Weight>0.12171752489322162</Weight>
			<Weight>-0.04812968071729587</Weight>
			<Weight>-0.0571607736634262</Weight>
			<Weight>0.17268914323578122</Weight>
			<Weight>0.04674298820373904</Weight>
			<Weight>-0.1789308126074417</Weight>
			<Weight>0.10575402742869215</Weight>
			<Weight>-0.11601007229422246</Weight>
			<Weight>-0.04768394050495304</Weight>
			<Weight>0.02425086248476198</Weight>
			<Weight>0.04737878055278923</Weight>
			<Weight>0.09903227243787524</Weight>
		</Node>
		<Node>
			<Theta>-0.07359281994081561</Theta>
			<Weight>0.021248187668375024</Weight>
			<Weight>-0.2555787542448715</Weight>
			<Weight>-0.028742808964287082</Weight>
			<Weight>0.013425946418499887</Weight>
			<Weight>-0.23342418492393432</Weight>
			<Weight>-0.06999399279246736</Weight>
			<Weight>0.03473360536350597</Weight>
			<Weight>-0.3716285207010905</Weight>
			<Weight>-0.2362302450561958</Weight>
			<Weight>-0.002239974920671286</Weight>
			<Weight>-0.12918362974053696</Weight>
			<Weight>0.05890858370201894</Weight>
			<Weight>0.11188817916474843</Weight>
			<Weight>0.090356094522339</Weight>
			<Weight>0.22880637055065334</Weight>
			<Weight>-0.03461588228988857</Weight>
			<Weight>0.08785309617593184</Weight>
			<Weight>0.16767023964403666</Weight>
			<Weight>-0.020271408883837026</Weight>
			<Weight>-0.18130388116395246</Weight>
			<Weight>0.20250050185266155</Weight>
			<Weight>-0.16716358387643598</Weight>
			<Weight>0.1214599662003708</Weight>
			<Weight>-0.15209863026473588</Weight>
			<Weight>-0.0426635200297398</Weight>
			<Weight>0.15137495339220966</Weight>
			<Weight>0.1696502450845783</Weight>
		</Node>
		<Node>
			<Theta>-0.11330573673325652</Theta>
			<Weight>0.10997650040443174</Weight>
			<Weight>0.2162495360448538</Weight>
			<Weight>-0.0007937228890745029</Weight>
			<Weight>-0.25025466268597546</Weight>
			<Weight>0.37220527167433115</Weight>
			<Weight>0.06634000504409909</Weight>
			<Weight>-0.07456240008370264</Weight>
			<Weight>0.4139219946811037</Weight>
			<Weight>0.24319154972580345</Weight>
			<Weight>0.014932683336913345</Weight>
			<Weight>-0.019778372406208444</Weight>
			<Weight>-0.16987584673320916</Weight>
			<Weight>0.0417287163167877</Weight>
			<Weight>0.060832039389993264</Weight>
			<Weight>-0.07182700057604395</Weight>
			<Weight>0.1459324291982292</Weight>
			<Weight>0.17295697363120477</Weight>
			<Weight>-0.0566337142601479</Weight>
			<Weight>0.0699759705357076</Weight>
			<Weight>0.16208516886709262</Weight>
			<Weight>0.11044188703987948</Weight>
			<Weight>0.0681455577974685</Weight>
			<Weight>-0.02342336935630865</Weight>
			<Weight>0.21952725780697502</Weight>
			<Weight>-0.08298209811817374</Weight>
			<Weight>-0.07344901246386323</Weight>
			<Weight>-0.25313697855042366</Weight>
		</Node>
		<Node>
			<Theta>-0.03224681395199903</Theta>
			<Weight>0.14678329011244823</Weight>
			<Weight>0.08189244346965156</Weight>
			<Weight>-0.12807628141321384</Weight>
			<Weight>0.20076279364112218</Weight>
			<Weight>-0.1493397803391492</Weight>
			<Weight>0.0952407044213725</Weight>
			<Weight>-0.1766865372380521</Weight>
			<Weight>-0.19798166005693124</Weight>
			<Weight>0.07391188177157772</Weight>
			<Weight>-0.10873955563817003</Weight>
			<Weight>0.09740154061085665</Weight>
			<Weight>0.05064801608067215</Weight>
			<Weight>0.059261569031521424</Weight>
			<Weight>-0.08319039902220646</Weight>
			<Weight>0.13367698516836235</Weight>
			<Weight>0.10952414037271088</Weight>
			<Weight>-0.1157472821159724</Weight>
			<Weight>-0.1391341282161907</Weight>
			<Weight>-0.08637578214096156</Weight>
			<Weight>0.027789501395754368</Weight>
			<Weight>0.10307526267446901</Weight>
			<Weight>-0.1520059125916799</Weight>
			<Weight>-0.10178671871567364</Weight>
			<Weight>0.06527186538648411</Weight>
			<Weight>-0.09319511864182185</Weight>
			<Weight>0.08826379990259431</Weight>
			<Weight>-0.11966113219989223</Weight>
		</Node>
	</Layer>
	<Layer>
		<Node>
			<Theta>0.008877723216746168</Theta>
			<Weight>0.10273624335945647</Weight>
			<Weight>0.23554422811983938</Weight>
			<Weight>0.05411115854519525</Weight>
			<Weight>-0.08503053938313225</Weight>
			<Weight>-0.034182402915002644</Weight>
			<Weight>0.0003445326985213983</Weight>
			<Weight>-0.13100326078272753</Weight>
			<Weight>0.23115472576029114</Weight>
			<Weight>0.19117924697892966</Weight>
			<Weight>0.24601780368435192</Weight>
			<Weight>0.3180868061619945</Weight>
			<Weight>0.11306667148233195</Weight>
			<Weight>0.33167735255789615</Weight>
			<Weight>-0.03616820110978554</Weight>
			<Weight>-0.015046530547339803</Weight>
			<Weight>-0.36612284360841635</Weight>
			<Weight>-0.16007434704911933</Weight>
			<Weight>0.15604644866674341</Weight>
			<Weight>-0.23556707454329112</Weight>
			<Weight>-0.28311238933966604</Weight>
			<Weight>-0.09984308494287056</Weight>
			<Weight>-0.05300853064141341</Weight>
			<Weight>-0.17905933736490087</Weight>
			<Weight>-0.0650914467124714</Weight>
			<Weight>-0.09095970422320233</Weight>
			<Weight>0.17919837109067255</Weight>
			<Weight>-0.3318871574059037</Weight>
			<Weight>0.1291454444133087</Weight>
			<Weight>0.32928151864059924</Weight>
			<Weight>-0.03999677424160535</Weight>
			<Weight>-0.05251506281600769</Weight>
			<Weight>-0.1696013845519604</Weight>
			<Weight>-0.04724462449713452</Weight>
			<Weight>0.01183582475258151</Weight>
			<Weight>0.3475385234770233</Weight>
			<Weight>-0.25523945546462184</Weight>
			<Weight>-0.21687896046595118</Weight>
			<Weight>0.25291218065301746</Weight>
			<Weight>-0.07502162514740629</Weight>
			<Weight>-0.05197292558722829</Weight>
			<Weight>0.16107824281722857</Weight>
			<Weight>-0.22019495996847496</Weight>
			<Weight>0.03950822244457203</Weight>
			<Weight>0.08047044868822012</Weight>
			<Weight>-0.1419216246783954</Weight>
			<Weight>0.0954187953258926</Weight>
			<Weight>0.05334420942196609</Weight>
			<Weight>0.24357481870681905</Weight>
			<Weight>-0.26667082079876187</Weight>
			<Weight>2.1949768380487807e-05</Weight>
		</Node>
		<Node>
			<Theta>0.06587092228664387</Theta>
			<Weight>0.020527087137933688</Weight>
			<Weight>0.14715941148643188</Weight>
			<Weight>0.0073849444276006</Weight>
			<Weight>0.005162135581319146</Weight>
			<Weight>0.11813350271079495</Weight>
			<Weight>-0.045207553753305506</Weight>
			<Weight>0.07809752723530035</Weight>
			<Weight>-0.03633677061873612</Weight>
			<Weight>0.13389390556709854</Weight>
			<Weight>0.13145099661469367</Weight>
			<Weight>0.004022783944697147</Weight>
			<Weight>0.027693591774629486</Weight>
			<Weight>-0.07222181694232951</Weight>
			<Weight>-0.0475674912837351</Weight>
			<Weight>-0.041471329494862215</Weight>
			<Weight>-0.1449698888203596</Weight>
			<Weight>0.018066026876095976</Weight>
			<Weight>0.14615295006479806</Weight>
			<Weight>0.09879125395255987</Weight>
			<Weight>-0.11979186062138938</Weight>
			<Weight>0.041583036350578834</Weight>
			<Weight>0.15286734358655713</Weight>
			<Weight>0.04215823380743593</Weight>
			<Weight>-0.0989158167959819</Weight>
			<Weight>0.08743302029075577</Weight>
			<Weight>0.09680425622755232</Weight>
			<Weight>0.061745094779402765</Weight>
			<Weight>0.15832391712524252</Weight>
			<Weight>0.16051139132540346</Weight>
			<Weight>0.10490704730860251</Weight>
			<Weight>-0.05731968584668821</Weight>
			<Weight>-0.12886310998369951</Weight>
			<Weight>-0.0981627363282027</Weight>
			<Weight>-0.052762644507768054</Weight>
			<Weight>-0.014863820155043282</Weight>
			<Weight>0.0575575610615359</Weight>
			<Weight>0.06761059010936053</Weight>
			<Weight>0.08630780844505698</Weight>
			<Weight>-0.06619484197739692</Weight>
			<Weight>0.03528513233312438</Weight>
			<Weight>0.11801788903928827</Weight>
			<Weight>-0.014691192070302245</Weight>
			<Weight>0.16885779914718888</Weight>
			<Weight>0.13142415119605194</Weight>
			<Weight>0.04010029065186573</Weight>
			<Weight>-0.09618705792497444</Weight>
			<Weight>-0.0666186196670342</Weight>
			<Weight>0.053707493030504004</Weight>
			<Weight>-0.14017700528707536</Weight>
			<Weight>0.0015621720143892998</Weight>
		</Node>
		<Node>
			<Theta>0.11698111361774598</Theta>
			<Weight>0.13418480469302832</Weight>
			<Weight>0.07667839236542467</Weight>
			<Weight>-0.08044973594844396</Weight>
			<Weight>0.0025705479237250846</Weight>
			<Weight>-0.07030231499798315</Weight>
			<Weight>-0.07696709098739205</Weight>
			<Weight>0.00859911816491166</Weight>
			<Weight>-0.09436182041920371</Weight>
			<Weight>-0.04261672667027349</Weight>
			<Weight>0.07496465275670774</Weight>
			<Weight>-0.11694124060844518</Weight>
			<Weight>-0.07342897096505224</Weight>
			<Weight>-0.11881092661028388</Weight>
			<Weight>0.07847082232623048</Weight>
			<Weight>0.05099327997406551</Weight>
			<Weight>-0.07501578403430853</Weight>
			<Weight>0.15444003112326718</Weight>
			<Weight>-0.05845057831696161</Weight>
			<Weight>0.08520618000077175</Weight>
			<Weight>0.12786603629673285</Weight>
			<Weight>0.1620199718744357</Weight>
			<Weight>-0.033174456418877715</Weight>
			<Weight>-0.02705362955209954</Weight>
			<Weight>0.08057458362676331</Weight>
			<Weight>0.16894427635593243</Weight>
			<Weight>0.052839625189243296</Weight>
			<Weight>0.18604435289246213</Weight>
			<Weight>0.055810054955282164</Weight>
			<Weight>0.11748875222185517</Weight>
			<Weight>0.07665358322252039</Weight>
			<Weight>0.15687108182039616</Weight>
			<Weight>-0.019039603488209652</Weight>
			<Weight>0.016680787656733007</Weight>
			<Weight>0.18372608366790658</Weight>
			<Weight>0.08647508766242168</Weight>
			<Weight>-0.031115207386397028</Weight>
			<Weight>0.15802044660216763</Weight>
			<Weight>0.1079236658408408</Weight>
			<Weight>0.030743439471154474</Weight>
			<Weight>0.12959134434143982</Weight>
			<Weight>0.07580782159224325</Weight>
			<Weight>0.0554871538995244</Weight>
			<Weight>0.1782842022133756</Weight>
			<Weight>-0.04456859717136242</Weight>
			<Weight>0.12663146490898508</Weight>
			<Weight>0.15064089174225512</Weight>
			<Weight>0.15619878013488758</Weight>
			<Weight>0.04622782054879457</Weight>
			<Weight>0.10489925935587266</Weight>
			<Weight>-0.08328952795697588</Weight>
		</Node>
		<Node>
			<Theta>-0.040351142955790495</Theta>
			<Weight>0.007581571348625974</Weight>
			<Weight>0.04560427944818892</Weight>
			<Weight>-0.029439486243837822</Weight>
			<Weight>0.10707341171642641</Weight>
			<Weight>-0.17533008249389131</Weight>
			<Weight>-0.07912366682434539</Weight>
			<Weight>-0.12583948044915744</Weight>
			<Weight>0.13129980582533415</Weight>
			<Weight>-0.003054998662129896</Weight>
			<Weight>0.10276692329492795</Weight>
			<Weight>0.021445060243769555</Weight>
			<Weight>0.18121278388469378</Weight>
			<Weight>0.14713211754144018</Weight>
			<Weight>0.1249181366700143</Weight>
			<Weight>0.06890093681711866</Weight>
			<Weight>-0.17883543501140306</Weight>
			<Weight>-0.24262114406866067</Weight>
			<Weight>0.06864968605828402</Weight>
			<Weight>-0.13802387187937679</Weight>
			<Weight>-0.08861698914727503</Weight>
			<Weight>-0.16553501944501756</Weight>
			<Weight>-0.07506358835437514</Weight>
			<Weight>-0.1426210454203448</Weight>
			<Weight>0.0010186528652519058</Weight>
			<Weight>-0.06757686764708125</Weight>
			<Weight>-0.057331681957964564</Weight>
			<Weight>-0.13482151658256483</Weight>
			<Weight>0.0860024428030163</Weight>
			<Weight>0.23487587655054473</Weight>
			<Weight>-0.09841977614706551</Weight>
			<Weight>-0.1615374849955654</Weight>
			<Weight>-0.2167646957425905</Weight>
			<Weight>-0.025802561838627336</Weight>
			<Weight>0.05155958828914128</Weight>
			<Weight>0.21163621736423713</Weight>
			<Weight>-0.08357355675623687</Weight>
			<Weight>-0.16787107484934033</Weight>
			<Weight>0.2251024988585646</Weight>
			<Weight>0.05931922651381825</Weight>
			<Weight>-0.16429715982590357</Weight>
			<Weight>0.17138497434905586</Weight>
			<Weight>-0.1900384863036459</Weight>
			<Weight>0.10383554014196127</Weight>
			<Weight>-0.12172266201008532</Weight>
			<Weight>-0.1511953656048611</Weight>
			<Weight>0.14640044680295553</Weight>
			<Weight>-0.02516458756712074</Weight>
			<Weight>0.17319650211029416</Weight>
			<Weight>-0.25456684922292755</Weight>
			<Weight>0.07964199877155516</Weight>
		</Node>
		<Node>
			<Theta>-0.17536617317015174</Theta>
			<Weight>0.08928967050246243</Weight>
			<Weight>0.12167138921447228</Weight>
			<Weight>0.008347788992951709</Weight>
			<Weight>0.08002397553032721</Weight>
			<Weight>-0.0716225214233189</Weight>
			<Weight>-0.004229945218658322</Weight>
			<Weight>-0.004897089871753851</Weight>
			<Weight>-0.02911029380463444</Weight>
			<Weight>0.05770636373106422</Weight>
			<Weight>0.12337001806570165</Weight>
			<Weight>0.15699664926667609</Weight>
			<Weight>-0.05347128636664311</Weight>
			<Weight>0.0428466466092431</Weight>
			<Weight>-0.02485246822661102</Weight>
			<Weight>-0.03728853878151523</Weight>
			<Weight>-0.1584965684459816</Weight>
			<Weight>-0.2243273780468505</Weight>
			<Weight>0.10030818219236047</Weight>
			<Weight>-0.1751695014109028</Weight>
			<Weight>-0.2017562784550324</Weight>
			<Weight>-0.13951758316580595</Weight>
			<Weight>-0.1260808703510277</Weight>
			<Weight>-0.1238817677661369</Weight>
			<Weight>-0.13488049052185128</Weight>
			<Weight>-0.254385545517978</Weight>
			<Weight>-0.04225627632971771</Weight>
			<Weight>-0.03964254535746161</Weight>
			<Weight>0.1318777068920277</Weight>
			<Weight>-0.010032408501761821</Weight>
			<Weight>-0.020602746291015824</Weight>
			<Weight>0.0212013966943599</Weight>
			<Weight>-0.23264124016204318</Weight>
			<Weight>-0.009399354422651513</Weight>
			<Weight>0.11051444190080316</Weight>
			<Weight>0.10417764374315577</Weight>
			<Weight>-0.043234867456329484</Weight>
			<Weight>-0.07738395178299416</Weight>
			<Weight>0.08739080641828942</Weight>
			<Weight>-0.06562550176117854</Weight>
			<Weight>-0.11817867313969165</Weight>
			<Weight>0.14676419767656407</Weight>
			<Weight>-0.13705763985255168</Weight>
			<Weight>0.16417157707230082</Weight>
			<Weight>-0.016302549041667037</Weight>
			<Weight>-0.010984704244935794</Weight>
			<Weight>-0.04585433836159663</Weight>
			<Weight>0.04893252005781464</Weight>
			<Weight>0.19805108860585127</Weight>
			<Weight>-0.0026576345599640424</Weight>
			<Weight>0.1182309306111153</Weight>
		</Node>
		<Node>
			<Theta>-0.07963331512453961</Theta>
			<Weight>0.002273806964134143</Weight>
			<Weight>-0.11764953158302698</Weight>
			<Weight>-0.02787018073297482</Weight>
			<Weight>-0.06884823241059472</Weight>
			<Weight>0.11225131549930413</Weight>
			<Weight>-0.003418494892671163</Weight>
			<Weight>0.2112281280772172</Weight>
			<Weight>-0.040515332457557285</Weight>
			<Weight>-0.36884883759409226</Weight>
			<Weight>-0.32117001354167574</Weight>
			<Weight>-0.4303187398469979</Weight>
			<Weight>-0.08271869233551357</Weight>
			<Weight>-0.36746526021930703</Weight>
			<Weight>0.022534875408312446</Weight>
			<Weight>-0.03468601186966073</Weight>
			<Weight>0.42296231207603446</Weight>
			<Weight>0.26974257126726564</Weight>
			<Weight>-0.12429011281968039</Weight>
			<Weight>0.3014088586428801</Weight>
			<Weight>0.23903211188940043</Weight>
			<Weight>0.1678440235290126</Weight>
			<Weight>-0.15353382748168726</Weight>
			<Weight>0.2066680470856003</Weight>
			<Weight>-0.0015588335661030467</Weight>
			<Weight>0.30131078711974607</Weight>
			<Weight>-0.22391776467427654</Weight>
			<Weight>0.1783694640796656</Weight>
			<Weight>-0.15275999322452607</Weight>
			<Weight>-0.26202576291729157</Weight>
			<Weight>0.024706034976490782</Weight>
			<Weight>0.24181316916660314</Weight>
			<Weight>0.0989366441881247</Weight>
			<Weight>0.036772568035664914</Weight>
			<Weight>0.03423904230735801</Weight>
			<Weight>-0.37050995722710495</Weight>
			<Weight>0.2995483065872443</Weight>
			<Weight>0.1640103490703581</Weight>
			<Weight>-0.22976434617874003</Weight>
			<Weight>-0.05349731972842268</Weight>
			<Weight>0.09641345296768775</Weight>
			<Weight>-0.11194754006923405</Weight>
			<Weight>0.011154187222394935</Weight>
			<Weight>-0.06638299739422683</Weight>
			<Weight>0.15537471685370716</Weight>
			<Weight>0.09261053011746194</Weight>
			<Weight>-0.1053848311627384</Weight>
			<Weight>-0.24466778623529722</Weight>
			<Weight>-0.24652013760211292</Weight>
			<Weight>0.28683384051440286</Weight>
			<Weight>-0.0881853806617139</Weight>
		</Node>
		<Node>
			<Theta>-0.03343838315949076</Theta>
			<Weight>-0.06576020775217423</Weight>
			<Weight>0.22029827729945192</Weight>
			<Weight>0.01289441290499436</Weight>
			<Weight>0.13789167205279765</Weight>
			<Weight>-0.09085387781586664</Weight>
			<Weight>0.17116777972482225</Weight>
			<Weight>-0.157030379091004</Weight>
			<Weight>0.21011525278662505</Weight>
			<Weight>0.27374815568594757</Weight>
			<Weight>0.16679961368463062</Weight>
			<Weight>0.32043402875700044</Weight>
			<Weight>-0.019715410152207256</Weight>
			<Weight>0.1027574573357394</Weight>
			<Weight>-0.09693816755904151</Weight>
			<Weight>-0.16462022235264778</Weight>
			<Weight>-0.16294156414547187</Weight>
			<Weight>-0.008361536029558529</Weight>
			<Weight>-0.10589610298144257</Weight>
			<Weight>-0.10227602180812027</Weight>
			<Weight>-0.18443566334084163</Weight>
			<Weight>-0.23194930751544543</Weight>
			<Weight>0.05383349252138665</Weight>
			<Weight>-0.11245562654326963</Weight>
			<Weight>-0.11763447041977879</Weight>
			<Weight>-0.15840392871658848</Weight>
			<Weight>0.21194712253101236</Weight>
			<Weight>-0.08913235645515853</Weight>
			<Weight>-0.002953595396870878</Weight>
			<Weight>0.08627329052902341</Weight>
			<Weight>-0.2155210786501747</Weight>
			<Weight>-0.09191952069085102</Weight>
			<Weight>-0.20850904456758937</Weight>
			<Weight>-0.021562470030107948</Weight>
			<Weight>0.07889881581567613</Weight>
			<Weight>0.30344404983055256</Weight>
			<Weight>-0.2679468549893844</Weight>
			<Weight>-0.17878388328262906</Weight>
			<Weight>0.15936778527128995</Weight>
			<Weight>0.07669950184511296</Weight>
			<Weight>-0.21317312400210878</Weight>
			<Weight>0.2037269627035219</Weight>
			<Weight>-0.071827736509133</Weight>
			<Weight>0.18473046172562582</Weight>
			<Weight>-0.15366917854771123</Weight>
			<Weight>-0.05529876192885635</Weight>
			<Weight>0.15754426488220097</Weight>
			<Weight>0.20530156204256023</Weight>
			<Weight>0.03650649757243048</Weight>
			<Weight>-0.14907707195024208</Weight>
			<Weight>-0.02974856615851625</Weight>
		</Node>
		<Node>
			<Theta>-0.03020739048275179</Theta>
			<Weight>-0.14410231553740355</Weight>
			<Weight>0.10661258885314383</Weight>
			<Weight>0.19196309993224592</Weight>
			<Weight>0.06607688443684605</Weight>
			<Weight>0.03963306746773467</Weight>
			<Weight>0.12671776633276857</Weight>
			<Weight>-0.1849706711236807</Weight>
			<Weight>0.23029555257292372</Weight>
			<Weight>0.2989751363341434</Weight>
			<Weight>0.22182088182132984</Weight>
			<Weight>0.3540736143020967</Weight>
			<Weight>0.1587004566383429</Weight>
			<Weight>0.33063403523064416</Weight>
			<Weight>0.12072293422049968</Weight>
			<Weight>-0.15797931356970932</Weight>
			<Weight>-0.3125625235081152</Weight>
			<Weight>-0.1914909317491027</Weight>
			<Weight>0.1595080426521244</Weight>
			<Weight>-0.03080058208542604</Weight>
			<Weight>-0.3496147457674499</Weight>
			<Weight>-0.12670423110307352</Weight>
			<Weight>-0.0053819755369331635</Weight>
			<Weight>-0.18377432973295915</Weight>
			<Weight>-0.03469437550873825</Weight>
			<Weight>-0.19867610249533604</Weight>
			<Weight>0.04069103827714915</Weight>
			<Weight>-0.2260352007706033</Weight>
			<Weight>0.13677881271732062</Weight>
			<Weight>0.1674458089134813</Weight>
			<Weight>-0.11962542872897526</Weight>
			<Weight>-0.04779517348944635</Weight>
			<Weight>-0.22292434662066163</Weight>
			<Weight>-0.19637236776152694</Weight>
			<Weight>-0.0451328463181138</Weight>
			<Weight>0.3516987770871592</Weight>
			<Weight>-0.14594900377028466</Weight>
			<Weight>-0.30095746061016454</Weight>
			<Weight>0.19296872258278322</Weight>
			<Weight>0.05652496727455895</Weight>
			<Weight>-0.06487106153217904</Weight>
			<Weight>0.07609704053556228</Weight>
			<Weight>-0.21110054760056446</Weight>
			<Weight>0.1467988031633007</Weight>
			<Weight>0.03664891012409971</Weight>
			<Weight>-0.14945558880776802</Weight>
			<Weight>0.1738234172540507</Weight>
			<Weight>0.014844106195562699</Weight>
			<Weight>0.17466602618409152</Weight>
			<Weight>-0.08415088855959528</Weight>
			<Weight>0.01808026057329831</Weight>
		</Node>
		<Node>
			<Theta>0.04617680100039361</Theta>
			<Weight>0.012945397505117055</Weight>
			<Weight>0.4542933880472628</Weight>
			<Weight>0.10395887771516882</Weight>
			<Weight>0.10510935594378297</Weight>
			<Weight>-0.12420630324591775</Weight>
			<Weight>0.05511896049365408</Weight>
			<Weight>-0.045516627382466264</Weight>
			<Weight>0.35688853545115984</Weight>
			<Weight>0.5837457784030873</Weight>
			<Weight>0.4633533487160195</Weight>
			<Weight>0.6253007031678555</Weight>
			<Weight>0.2982719998892547</Weight>
			<Weight>0.4359338469960609</Weight>
			<Weight>0.28390934342888935</Weight>
			<Weight>0.03784540869256561</Weight>
			<Weight>-0.505694670320112</Weight>
			<Weight>-0.2922733499701518</Weight>
			<Weight>-0.008250997166874144</Weight>
			<Weight>-0.16327764702191852</Weight>
			<Weight>-0.5261104778530389</Weight>
			<Weight>-0.26476009037414827</Weight>
			<Weight>0.17767535101473952</Weight>
			<Weight>-0.374768233344844</Weight>
			<Weight>-0.24745723686886684</Weight>
			<Weight>-0.2971859026837334</Weight>
			<Weight>0.40706506230854417</Weight>
			<Weight>-0.4574131320245974</Weight>
			<Weight>0.07446358822880936</Weight>
			<Weight>0.41137647689610285</Weight>
			<Weight>-0.34734843863636655</Weight>
			<Weight>-0.1704257392840816</Weight>
			<Weight>-0.24729833247933108</Weight>
			<Weight>-0.10682974423337616</Weight>
			<Weight>0.07154248519752997</Weight>
			<Weight>0.4921845338504088</Weight>
			<Weight>-0.31857409085370075</Weight>
			<Weight>-0.4142633252515681</Weight>
			<Weight>0.37040787414822873</Weight>
			<Weight>0.008578140144190328</Weight>
			<Weight>-0.2830383889025895</Weight>
			<Weight>0.38107829208215444</Weight>
			<Weight>-0.016258052571089955</Weight>
			<Weight>0.1283565585487191</Weight>
			<Weight>0.17244237391958583</Weight>
			<Weight>0.004730501411461499</Weight>
			<Weight>0.3625924625946405</Weight>
			<Weight>0.30940364380317326</Weight>
			<Weight>0.2578565289534748</Weight>
			<Weight>-0.35173611502932534</Weight>
			<Weight>0.1368113462616415</Weight>
		</Node>
		<Node>
			<Theta>-0.11321943540364308</Theta>
			<Weight>-0.02650703964058113</Weight>
			<Weight>0.04040108948205211</Weight>
			<Weight>0.02531011324910907</Weight>
			<Weight>0.03171113194949695</Weight>
			<Weight>-0.003840528505472766</Weight>
			<Weight>0.12364487433228093</Weight>
			<Weight>-0.08737156913303719</Weight>
			<Weight>0.034061808849869875</Weight>
			<Weight>-0.07646360012108463</Weight>
			<Weight>0.028075877807462783</Weight>
			<Weight>-0.01089870952488185</Weight>
			<Weight>0.07784394157205739</Weight>
			<Weight>0.02531404920562631</Weight>
			<Weight>0.0783817087461294</Weight>
			<Weight>-0.135679130266826</Weight>
			<Weight>-0.2628083765988626</Weight>
			<Weight>-0.10179216973109231</Weight>
			<Weight>0.07244441167099021</Weight>
			<Weight>-0.1010019308784555</Weight>
			<Weight>-0.12942094604954518</Weight>
			<Weight>-0.2043011395233617</Weight>
			<Weight>-0.018989355855017934</Weight>
			<Weight>-0.01481226778331104</Weight>
			<Weight>-0.028984825542077628</Weight>
			<Weight>-0.09518694881488647</Weight>
			<Weight>0.12917568497432214</Weight>
			<Weight>-0.0044232559189368945</Weight>
			<Weight>-0.12037528351578607</Weight>
			<Weight>-0.0006950642340872238</Weight>
			<Weight>-0.15109727744487544</Weight>
			<Weight>0.03648089300210191</Weight>
			<Weight>-0.008423346772708687</Weight>
			<Weight>-0.07312708217458666</Weight>
			<Weight>-0.04442388977322608</Weight>
			<Weight>0.15664889497474754</Weight>
			<Weight>-0.21376833592096475</Weight>
			<Weight>-0.211753625573178</Weight>
			<Weight>0.202871343059525</Weight>
			<Weight>-0.08189867981178696</Weight>
			<Weight>-0.046929691123983146</Weight>
			<Weight>0.06772670689863733</Weight>
			<Weight>-0.018162006398782755</Weight>
			<Weight>0.0976348352406541</Weight>
			<Weight>0.019827863356767186</Weight>
			<Weight>-0.11811016991928566</Weight>
			<Weight>0.04178402555834507</Weight>
			<Weight>0.07974260324953349</Weight>
			<Weight>-0.04468847463413769</Weight>
			<Weight>-0.05261415275695288</Weight>
			<Weight>0.08306713425191325</Weight>
		</Node>
		<Node>
			<Theta>-0.08553193511168139</Theta>
			<Weight>0.029399460143732514</Weight>
			<Weight>-0.014530906824874885</Weight>
			<Weight>0.052174655504951914</Weight>
			<Weight>-0.012098792655568999</Weight>
			<Weight>-0.02206424873546761</Weight>
			<Weight>-0.007851365156408097</Weight>
			<Weight>0.09398705126092745</Weight>
			<Weight>-0.19965830899321835</Weight>
			<Weight>-0.2903567794082767</Weight>
			<Weight>-0.2681132523964049</Weight>
			<Weight>-0.2792159346413595</Weight>
			<Weight>-0.28678157756664363</Weight>
			<Weight>-0.2810076040966909</Weight>
			<Weight>-0.1766529391663096</Weight>
			<Weight>0.20575766590070024</Weight>
			<Weight>0.31032832235334923</Weight>
			<Weight>0.26146689983563404</Weight>
			<Weight>0.011185306888985662</Weight>
			<Weight>0.27110073039260324</Weight>
			<Weight>0.34126108385244486</Weight>
			<Weight>-0.009029791160641355</Weight>
			<Weight>-0.1387345675258312</Weight>
			<Weight>0.038138149516146594</Weight>
			<Weight>0.07283965196840637</Weight>
			<Weight>0.17681028012623118</Weight>
			<Weight>-0.23861336990904308</Weight>
			<Weight>0.3085454895534661</Weight>
			<Weight>0.03016904119635352</Weight>
			<Weight>-0.10680244290672264</Weight>
			<Weight>0.22407849941107527</Weight>
			<Weight>0.21963087596094683</Weight>
			<Weight>0.1924367504337727</Weight>
			<Weight>-0.021722023052990806</Weight>
			<Weight>-0.08042735814007043</Weight>
			<Weight>-0.22048098869039942</Weight>
			<Weight>0.2983820832719815</Weight>
			<Weight>0.09364041875849513</Weight>
			<Weight>-0.14319706695699724</Weight>
			<Weight>0.04231495432429135</Weight>
			<Weight>0.17065034083729216</Weight>
			<Weight>-0.03188121318084298</Weight>
			<Weight>-0.04784216077906611</Weight>
			<Weight>-0.15191632287357723</Weight>
			<Weight>-0.04475468622127673</Weight>
			<Weight>0.10316563935195583</Weight>
			<Weight>-0.07988530765929316</Weight>
			<Weight>0.012169985644638849</Weight>
			<Weight>-0.15905778556657332</Weight>
			<Weight>0.14380618749563426</Weight>
			<Weight>0.07711454002129493</Weight>
		</Node>
		<Node>
			<Theta>-0.007501061873531749</Theta>
			<Weight>-0.10444431877620672</Weight>
			<Weight>0.33410296513365906</Weight>
			<Weight>0.11758203914039149</Weight>
			<Weight>-0.011651797755626428</Weight>
			<Weight>-0.10537375570849626</Weight>
			<Weight>0.17018051245957833</Weight>
			<Weight>-0.01878916937048558</Weight>
			<Weight>0.36062171907631907</Weight>
			<Weight>0.476139740617689</Weight>
			<Weight>0.32174906958444405</Weight>
			<Weight>0.4439958828219631</Weight>
			<Weight>0.3850756397210646</Weight>
			<Weight>0.30669308339209905</Weight>
			<Weight>0.23607795213142566</Weight>
			<Weight>-0.043729563179810145</Weight>
			<Weight>-0.5048458810040068</Weight>
			<Weight>-0.04270786500239458</Weight>
			<Weight>0.0003677114465627403</Weight>
			<Weight>-0.1458627052435728</Weight>
			<Weight>-0.4881436807454783</Weight>
			<Weight>-0.21054581173368883</Weight>
			<Weight>-0.0024255291036324555</Weight>
			<Weight>-0.15703828159366762</Weight>
			<Weight>-0.06010228967160523</Weight>
			<Weight>-0.26705808333859715</Weight>
			<Weight>0.1547510498024166</Weight>
			<Weight>-0.39687534843162114</Weight>
			<Weight>0.10512557414931611</Weight>
			<Weight>0.44603646063306623</Weight>
			<Weight>-0.09932496212509029</Weight>
			<Weight>-0.12477574516040796</Weight>
			<Weight>-0.2477947934683752</Weight>
			<Weight>-0.16730699023175696</Weight>
			<Weight>0.17213605766109044</Weight>
			<Weight>0.5051854556746161</Weight>
			<Weight>-0.3636676669663356</Weight>
			<Weight>-0.19167327507949306</Weight>
			<Weight>0.33040760112583845</Weight>
			<Weight>0.01409746069745857</Weight>
			<Weight>-0.314882443719928</Weight>
			<Weight>0.28350575789018456</Weight>
			<Weight>0.016351488425218445</Weight>
			<Weight>0.09906058239838764</Weight>
			<Weight>-0.0801202131614033</Weight>
			<Weight>-0.19615350070837395</Weight>
			<Weight>0.27349344410089815</Weight>
			<Weight>0.0539731765513361</Weight>
			<Weight>0.25205416580706486</Weight>
			<Weight>-0.24136346251567037</Weight>
			<Weight>0.1642746882832467</Weight>
		</Node>
		<Node>
			<Theta>-0.06939338353683983</Theta>
			<Weight>-0.021869265244593854</Weight>
			<Weight>0.02686473892861305</Weight>
			<Weight>0.09716666473620704</Weight>
			<Weight>-0.0309106030948453</Weight>
			<Weight>0.0071349894773026015</Weight>
			<Weight>0.006630824402554385</Weight>
			<Weight>-0.059757330634566126</Weight>
			<Weight>-0.004148885939131026</Weight>
			<Weight>0.056822146090702214</Weight>
			<Weight>0.06416883907467302</Weight>
			<Weight>-0.014694851908886952</Weight>
			<Weight>-0.12560689549987375</Weight>
			<Weight>0.10841048204450084</Weight>
			<Weight>0.0236884305249866</Weight>
			<Weight>0.05783177453706534</Weight>
			<Weight>0.0031795585685391926</Weight>
			<Weight>0.1231533155976913</Weight>
			<Weight>0.12741814832649273</Weight>
			<Weight>0.030841765208046542</Weight>
			<Weight>0.13935551219282902</Weight>
			<Weight>0.09669667400719298</Weight>
			<Weight>-0.10566207884737877</Weight>
			<Weight>0.039196048671038985</Weight>
			<Weight>0.1098329541177953</Weight>
			<Weight>-0.0940919451818369</Weight>
			<Weight>-0.11462613767522237</Weight>
			<Weight>0.026212428713860942</Weight>
			<Weight>-0.07772101892434674</Weight>
			<Weight>0.06444752786485242</Weight>
			<Weight>0.060472972246317216</Weight>
			<Weight>0.08332483974579276</Weight>
			<Weight>0.1317478471917903</Weight>
			<Weight>-0.03414071354238028</Weight>
			<Weight>0.13516734611768416</Weight>
			<Weight>0.12200273153113178</Weight>
			<Weight>0.15233308784858324</Weight>
			<Weight>-0.017271700854014763</Weight>
			<Weight>0.08498325871218446</Weight>
			<Weight>-0.03029534261411533</Weight>
			<Weight>-0.09421479315691265</Weight>
			<Weight>0.10448140779304689</Weight>
			<Weight>0.07538099321370006</Weight>
			<Weight>0.11562583530529866</Weight>
			<Weight>-0.09990259875573555</Weight>
			<Weight>0.09932217791316256</Weight>
			<Weight>0.00580403536282698</Weight>
			<Weight>0.07380382631792645</Weight>
			<Weight>0.10377564611195</Weight>
			<Weight>0.04929251699294999</Weight>
			<Weight>-0.10711571910664609</Weight>
		</Node>
		<Node>
			<Theta>0.08890711141865833</Theta>
			<Weight>-0.03672199954799712</Weight>
			<Weight>-0.015116933654710781</Weight>
			<Weight>-0.12655677744538113</Weight>
			<Weight>-0.11290200595243877</Weight>
			<Weight>0.0849906579779349</Weight>
			<Weight>0.006699394291778318</Weight>
			<Weight>-0.02728667080064529</Weight>
			<Weight>0.07148615588650387</Weight>
			<Weight>0.13172606622536426</Weight>
			<Weight>0.10535313317658794</Weight>
			<Weight>0.12224469839649381</Weight>
			<Weight>-0.0460471751809596</Weight>
			<Weight>0.08390883925663872</Weight>
			<Weight>-0.06781888442358809</Weight>
			<Weight>-0.11057596769271057</Weight>
			<Weight>-0.21185240537594738</Weight>
			<Weight>0.06980085289000285</Weight>
			<Weight>-0.08074844209210869</Weight>
			<Weight>-0.11785810859805487</Weight>
			<Weight>-0.0427646329281355</Weight>
			<Weight>0.07112634091179434</Weight>
			<Weight>0.08006151220324502</Weight>
			<Weight>-0.004393044757645215</Weight>
			<Weight>-0.17666048373738974</Weight>
			<Weight>0.06352345303038039</Weight>
			<Weight>0.1384116122420987</Weight>
			<Weight>-0.06793506750999735</Weight>
			<Weight>0.03579075750439486</Weight>
			<Weight>0.09895971425720552</Weight>
			<Weight>-0.18308270166535034</Weight>
			<Weight>-0.043747642003761474</Weight>
			<Weight>0.057633984879472175</Weight>
			<Weight>-0.11333112029106959</Weight>
			<Weight>-0.0793244365120191</Weight>
			<Weight>0.08952055321069258</Weight>
			<Weight>-0.02208199572889549</Weight>
			<Weight>-0.17435085102625308</Weight>
			<Weight>0.031468796968862796</Weight>
			<Weight>0.03997497604585307</Weight>
			<Weight>-0.061825243258830896</Weight>
			<Weight>0.0761490167448876</Weight>
			<Weight>-0.05899801154095831</Weight>
			<Weight>-0.04017106756105765</Weight>
			<Weight>-0.03858812848562239</Weight>
			<Weight>-0.0238456112415199</Weight>
			<Weight>0.10096029139886262</Weight>
			<Weight>0.10465649228974894</Weight>
			<Weight>-0.0595597194238125</Weight>
			<Weight>-0.05627737570275838</Weight>
			<Weight>0.013404931302417343</Weight>
		</Node>
		<Node>
			<Theta>0.13479637840702485</Theta>
			<Weight>-0.052464957229863884</Weight>
			<Weight>0.2315552280371887</Weight>
			<Weight>0.02130338591676368</Weight>
			<Weight>0.1013655293012682</Weight>
			<Weight>0.007417956541992073</Weight>
			<Weight>0.10248001567023642</Weight>
			<Weight>-0.03596500867398227</Weight>
			<Weight>0.36962121358943306</Weight>
			<Weight>0.4666639676350161</Weight>
			<Weight>0.4695622652295022</Weight>
			<Weight>0.28952189920184673</Weight>
			<Weight>0.3517696966743878</Weight>
			<Weight>0.2949231526718307</Weight>
			<Weight>0.02304281241485239</Weight>
			<Weight>-0.12569904610435412</Weight>
			<Weight>-0.3966960281827595</Weight>
			<Weight>-0.2659350854089552</Weight>
			<Weight>0.017775326412361507</Weight>
			<Weight>-0.13151913911076674</Weight>
			<Weight>-0.3985479312276772</Weight>
			<Weight>-0.025133226543769625</Weight>
			<Weight>0.012090653178186635</Weight>
			<Weight>-0.3792165501197373</Weight>
			<Weight>-0.1572945330874155</Weight>
			<Weight>-0.1930330366268096</Weight>
			<Weight>0.18148530171752872</Weight>
			<Weight>-0.3052670692026091</Weight>
			<Weight>0.03099893218195069</Weight>
			<Weight>0.3099157262003829</Weight>
			<Weight>-0.2702290876568921</Weight>
			<Weight>-0.23400859047519304</Weight>
			<Weight>-0.13441526053989933</Weight>
			<Weight>-0.23130277014868733</Weight>
			<Weight>0.1761620004713053</Weight>
			<Weight>0.3868981051134476</Weight>
			<Weight>-0.2071227515268508</Weight>
			<Weight>-0.3577309008814591</Weight>
			<Weight>0.4011006329244065</Weight>
			<Weight>0.04470258764413028</Weight>
			<Weight>-0.1566606360620338</Weight>
			<Weight>0.370144047395424</Weight>
			<Weight>-0.20791332622731035</Weight>
			<Weight>0.07860908436579042</Weight>
			<Weight>0.00835911199458924</Weight>
			<Weight>-0.11748071460181705</Weight>
			<Weight>0.17061755507447718</Weight>
			<Weight>0.17028790207335165</Weight>
			<Weight>0.36703074293618515</Weight>
			<Weight>-0.24227400579874625</Weight>
			<Weight>0.19986504441803085</Weight>
		</Node>
		<Node>
			<Theta>0.065255723878919</Theta>
			<Weight>0.12442985634294448</Weight>
			<Weight>0.23570723814531885</Weight>
			<Weight>0.22662713887305092</Weight>
			<Weight>-0.024199768072532532</Weight>
			<Weight>0.05152557406174378</Weight>
			<Weight>0.23464233229302223</Weight>
			<Weight>-0.22454046857705365</Weight>
			<Weight>0.19097901931694403</Weight>
			<Weight>0.3880590789347355</Weight>
			<Weight>0.4852746388795495</Weight>
			<Weight>0.3783159709121732</Weight>
			<Weight>0.2112707836615298</Weight>
			<Weight>0.3397815622377218</Weight>
			<Weight>0.16457588147185637</Weight>
			<Weight>-0.09629695120552464</Weight>
			<Weight>-0.5573118603883847</Weight>
			<Weight>-0.3023908157532048</Weight>
			<Weight>0.15410459814934335</Weight>
			<Weight>-0.25714888218776905</Weight>
			<Weight>-0.49180563478039824</Weight>
			<Weight>-0.10562517678078034</Weight>
			<Weight>-0.04766208043944437</Weight>
			<Weight>-0.28832333468411075</Weight>
			<Weight>-0.2841618794411726</Weight>
			<Weight>-0.32016620224581105</Weight>
			<Weight>0.3399129073691542</Weight>
			<Weight>-0.442043216229049</Weight>
			<Weight>0.2896119986132505</Weight>
			<Weight>0.25648197356288044</Weight>
			<Weight>-0.17283552503460872</Weight>
			<Weight>-0.2746118276538509</Weight>
			<Weight>-0.05481365071153143</Weight>
			<Weight>-0.1492787191411243</Weight>
			<Weight>-0.009007333158938069</Weight>
			<Weight>0.5358641200365505</Weight>
			<Weight>-0.35208565357477983</Weight>
			<Weight>-0.17540889689463277</Weight>
			<Weight>0.5068839454781027</Weight>
			<Weight>0.10118855589105123</Weight>
			<Weight>-0.22119335371262758</Weight>
			<Weight>0.37793620452717547</Weight>
			<Weight>-0.059446056977042055</Weight>
			<Weight>0.11202863895230729</Weight>
			<Weight>0.04035556961974646</Weight>
			<Weight>-0.04270250957359442</Weight>
			<Weight>0.2151307392613302</Weight>
			<Weight>0.3121601408191305</Weight>
			<Weight>0.30682212444813994</Weight>
			<Weight>-0.0976303403002107</Weight>
			<Weight>-0.02531157535858168</Weight>
		</Node>
		<Node>
			<Theta>0.04667439172817244</Theta>
			<Weight>0.024127562725723837</Weight>
			<Weight>0.03658151095245195</Weight>
			<Weight>-0.0779086890655297</Weight>
			<Weight>-0.02559898922471203</Weight>
			<Weight>-0.006656301763035141</Weight>
			<Weight>-0.09474285490390524</Weight>
			<Weight>-0.009973056251634775</Weight>
			<Weight>-0.0011803304387470758</Weight>
			<Weight>-0.1078795039838076</Weight>
			<Weight>-0.012205143216941203</Weight>
			<Weight>0.031981916478964124</Weight>
			<Weight>-0.08725315834052223</Weight>
			<Weight>0.09673557718796429</Weight>
			<Weight>0.09990868808262815</Weight>
			<Weight>0.1819088067568743</Weight>
			<Weight>0.09427642795448729</Weight>
			<Weight>-0.09444306629337927</Weight>
			<Weight>0.010636670206965734</Weight>
			<Weight>0.08967346489266395</Weight>
			<Weight>-0.010953054807050059</Weight>
			<Weight>-0.04012769075885072</Weight>
			<Weight>0.09151424752224281</Weight>
			<Weight>0.00985690560648778</Weight>
			<Weight>-0.07411754888325135</Weight>
			<Weight>0.09420607776691557</Weight>
			<Weight>-0.08203155361249781</Weight>
			<Weight>0.08004906605216429</Weight>
			<Weight>0.036455742254543934</Weight>
			<Weight>0.06969763531872739</Weight>
			<Weight>-0.1241854087780913</Weight>
			<Weight>0.12493240267630872</Weight>
			<Weight>0.027539568069827054</Weight>
			<Weight>0.028458777782516882</Weight>
			<Weight>0.1218328981099128</Weight>
			<Weight>0.12565587908672593</Weight>
			<Weight>-0.10419522798493569</Weight>
			<Weight>-0.03136567055931887</Weight>
			<Weight>0.02719160801117055</Weight>
			<Weight>0.024590115246541852</Weight>
			<Weight>-0.054303516890171856</Weight>
			<Weight>0.06690604323495625</Weight>
			<Weight>0.02120074707569252</Weight>
			<Weight>0.10220055345215519</Weight>
			<Weight>0.09846418812667088</Weight>
			<Weight>0.12580040434536044</Weight>
			<Weight>0.008971762120919033</Weight>
			<Weight>-0.10053056958114709</Weight>
			<Weight>0.15624670104585411</Weight>
			<Weight>-0.10538103496860997</Weight>
			<Weight>0.001747805995491812</Weight>
		</Node>
		<Node>
			<Theta>0.16012385341120564</Theta>
			<Weight>0.14019551349472045</Weight>
			<Weight>0.12927291616651077</Weight>
			<Weight>0.019907088275374376</Weight>
			<Weight>-0.06088689188383707</Weight>
			<Weight>0.024391098787230732</Weight>
			<Weight>-0.0031704455938555243</Weight>
			<Weight>-0.24029372203531224</Weight>
			<Weight>0.11144823126585979</Weight>
			<Weight>0.289777739412871</Weight>
			<Weight>0.22762420653109128</Weight>
			<Weight>0.4042899450743927</Weight>
			<Weight>0.24348265416444634</Weight>
			<Weight>0.208076723085202</Weight>
			<Weight>0.13357952380846505</Weight>
			<Weight>0.0516573925702038</Weight>
			<Weight>-0.28659533507717666</Weight>
			<Weight>-0.023773657969944222</Weight>
			<Weight>-0.08832095137315508</Weight>
			<Weight>-0.12794118852986</Weight>
			<Weight>-0.30126468497711795</Weight>
			<Weight>-0.2466747927297286</Weight>
			<Weight>0.06046940938167343</Weight>
			<Weight>-0.25655745788492357</Weight>
			<Weight>-0.0814978989838873</Weight>
			<Weight>-0.1903925329126312</Weight>
			<Weight>0.2985585448880935</Weight>
			<Weight>-0.31426538094274387</Weight>
			<Weight>0.12991854250267806</Weight>
			<Weight>0.3518252284233586</Weight>
			<Weight>-0.25078991491705027</Weight>
			<Weight>-0.15166901418309403</Weight>
			<Weight>-0.12065930545146608</Weight>
			<Weight>-0.1434345593732428</Weight>
			<Weight>0.06184161122218825</Weight>
			<Weight>0.26194005453477787</Weight>
			<Weight>-0.2195283525935154</Weight>
			<Weight>-0.18408224409485255</Weight>
			<Weight>0.24739038670731944</Weight>
			<Weight>-0.12328744176773872</Weight>
			<Weight>-0.217011914667887</Weight>
			<Weight>0.24674656634330516</Weight>
			<Weight>-0.0008703617641703847</Weight>
			<Weight>0.12563170081417174</Weight>
			<Weight>-0.01862947069550949</Weight>
			<Weight>-0.18003960676066813</Weight>
			<Weight>0.17917429709310323</Weight>
			<Weight>0.00473411029575109</Weight>
			<Weight>0.2946367935712833</Weight>
			<Weight>-0.20626869082475632</Weight>
			<Weight>0.015786835569593757</Weight>
		</Node>
		<Node>
			<Theta>0.052020749824565955</Theta>
			<Weight>0.02369086122470321</Weight>
			<Weight>0.2631522272654727</Weight>
			<Weight>0.09506619491867221</Weight>
			<Weight>0.024894549040039272</Weight>
			<Weight>-0.00652000485364286</Weight>
			<Weight>0.017181613659157092</Weight>
			<Weight>-0.21020535663135198</Weight>
			<Weight>0.07953248971088646</Weight>
			<Weight>0.22194052310709841</Weight>
			<Weight>0.26858927572786273</Weight>
			<Weight>0.3367364384977602</Weight>
			<Weight>0.13414792183467206</Weight>
			<Weight>0.26621860713855605</Weight>
			<Weight>0.21570890041892946</Weight>
			<Weight>-0.07413592057079278</Weight>
			<Weight>-0.17737777062899596</Weight>
			<Weight>-0.09529592728724542</Weight>
			<Weight>-0.07100952842330704</Weight>
			<Weight>-0.14285416175135543</Weight>
			<Weight>-0.43254149051933044</Weight>
			<Weight>-0.2114885395840332</Weight>
			<Weight>0.13382261468103768</Weight>
			<Weight>-0.13970394297865898</Weight>
			<Weight>-0.10809607171706018</Weight>
			<Weight>-0.26591142321354555</Weight>
			<Weight>0.20975442517220977</Weight>
			<Weight>-0.3565825892433779</Weight>
			<Weight>0.19585282083089842</Weight>
			<Weight>0.24491221728876214</Weight>
			<Weight>-0.20973872070588798</Weight>
			<Weight>-0.15898639136797385</Weight>
			<Weight>-0.12903401361739994</Weight>
			<Weight>-0.09316435488760975</Weight>
			<Weight>0.06494366154142782</Weight>
			<Weight>0.1861444168649907</Weight>
			<Weight>-0.14607152124955944</Weight>
			<Weight>-0.09133322080531078</Weight>
			<Weight>0.3711769267289552</Weight>
			<Weight>0.07258519293895387</Weight>
			<Weight>-0.29750704420551355</Weight>
			<Weight>0.2650909631015873</Weight>
			<Weight>-0.17506075989693254</Weight>
			<Weight>-0.03118717229083868</Weight>
			<Weight>-0.0027564148162098046</Weight>
			<Weight>-0.070835598142637</Weight>
			<Weight>0.20138076133933672</Weight>
			<Weight>0.15161287354590433</Weight>
			<Weight>0.22405564376641268</Weight>
			<Weight>-0.26798652612259</Weight>
			<Weight>0.0012482506444742745</Weight>
		</Node>
		<Node>
			<Theta>0.12486748808736706</Theta>
			<Weight>-0.12329098219525046</Weight>
			<Weight>-0.04157816231922013</Weight>
			<Weight>0.15247647340250112</Weight>
			<Weight>0.12341869783540196</Weight>
			<Weight>-0.10911770623868834</Weight>
			<Weight>-0.004905669104015866</Weight>
			<Weight>0.05591285201572308</Weight>
			<Weight>0.015271246621734782</Weight>
			<Weight>0.20476726664079586</Weight>
			<Weight>-0.013220255460647094</Weight>
			<Weight>0.18017137327847393</Weight>
			<Weight>0.027896218355711676</Weight>
			<Weight>0.1714015439816145</Weight>
			<Weight>0.11646646266235239</Weight>
			<Weight>0.08490024884176042</Weight>
			<Weight>-0.2342575162702039</Weight>
			<Weight>-0.0823470893575438</Weight>
			<Weight>0.12721963519941298</Weight>
			<Weight>-0.0672320195453617</Weight>
			<Weight>-0.19041393954195424</Weight>
			<Weight>-0.06934045728877673</Weight>
			<Weight>-0.04756937657780993</Weight>
			<Weight>-0.015535518032458236</Weight>
			<Weight>-0.08535544514697388</Weight>
			<Weight>-0.226260478823655</Weight>
			<Weight>0.20742630501729326</Weight>
			<Weight>-0.23738053597453776</Weight>
			<Weight>0.051500895017111956</Weight>
			<Weight>0.160102348365539</Weight>
			<Weight>-0.02222457981906056</Weight>
			<Weight>-0.058356265825931376</Weight>
			<Weight>-0.18505385243561007</Weight>
			<Weight>-0.12070517681514951</Weight>
			<Weight>-0.015369581234336632</Weight>
			<Weight>0.032332522237469456</Weight>
			<Weight>-0.20925613671689822</Weight>
			<Weight>-0.20344240453760834</Weight>
			<Weight>0.05788737052960892</Weight>
			<Weight>0.10791772628139466</Weight>
			<Weight>-0.11524429972196405</Weight>
			<Weight>-0.03876608131785764</Weight>
			<Weight>-0.11029304335353328</Weight>
			<Weight>-0.05989973844134291</Weight>
			<Weight>-0.042232108823310806</Weight>
			<Weight>-0.13873948103505024</Weight>
			<Weight>-0.07827234349752515</Weight>
			<Weight>0.16985310191555922</Weight>
			<Weight>0.06749772572915172</Weight>
			<Weight>-0.0470622898012751</Weight>
			<Weight>0.0037121270027346462</Weight>
		</Node>
	</Layer>
	<Layer>
		<Node>
			<Theta>-0.87125261952444</Theta>
			<Weight>-0.3575651936054534</Weight>
			<Weight>-0.5302921433103925</Weight>
			<Weight>-0.3791071235243867</Weight>
			<Weight>-0.26603883469823414</Weight>
			<Weight>-0.19385569223162905</Weight>
			<Weight>-0.21384212385612683</Weight>
			<Weight>-0.6393262984583193</Weight>
			<Weight>-0.6308471130346464</Weight>
			<Weight>-0.47333995291166575</Weight>
			<Weight>-0.1979678833508058</Weight>
			<Weight>-0.6430440546474118</Weight>
			<Weight>-0.5849770211358138</Weight>
			<Weight>-0.22858879458232684</Weight>
			<Weight>-0.20909133281197498</Weight>
			<Weight>-0.5452533871143791</Weight>
			<Weight>-0.29370941481383706</Weight>
			<Weight>-0.4321650396685755</Weight>
			<Weight>-0.5719141511808553</Weight>
			<Weight>-0.18322214739096349</Weight>
			<Weight>-0.5474404962749895</Weight>
		</Node>
