<?xml version="1.0"?>
<NeuralNetwork>
	<Layer>
		<Node>
			<Theta>0.16502922329934158</Theta>
			<Weight>0.07785008977622615</Weight>
			<Weight>0.331101355604896</Weight>
			<Weight>-0.1501022204378533</Weight>
			<Weight>-0.793357799901349</Weight>
			<Weight>0.39380373917420103</Weight>
			<Weight>0.6803554923645223</Weight>
			<Weight>0.15986609551263747</Weight>
			<Weight>-0.22749881864968813</Weight>
			<Weight>0.3646129041520918</Weight>
			<Weight>0.36101330734227755</Weight>
			<Weight>-0.3119312620421169</Weight>
			<Weight>-0.06894342546247677</Weight>
			<Weight>0.1389083562804251</Weight>
			<Weight>0.28953570252884475</Weight>
			<Weight>-0.16188484726776992</Weight>
			<Weight>-0.01756307151336854</Weight>
			<Weight>-0.15587898827244334</Weight>
			<Weight>-0.059567769284082014</Weight>
			<Weight>0.15274561369907716</Weight>
			<Weight>-0.028954679339354656</Weight>
			<Weight>0.1654009721026202</Weight>
			<Weight>-0.297116160004539</Weight>
			<Weight>0.009598147810979256</Weight>
			<Weight>0.08746788476282688</Weight>
			<Weight>-0.13686379227836645</Weight>
			<Weight>-0.4390824259028085</Weight>
			<Weight>-0.033953117669536105</Weight>
		</Node>
		<Node>
			<Theta>0.3046007110761543</Theta>
			<Weight>0.007338851078683687</Weight>
			<Weight>-0.070900227578097</Weight>
			<Weight>-0.023467602910061818</Weight>
			<Weight>-0.2884948418072707</Weight>
			<Weight>0.010351520982747435</Weight>
			<Weight>0.8334149910289559</Weight>
			<Weight>-0.389889734806831</Weight>
			<Weight>-0.13484881658846856</Weight>
			<Weight>0.1050445320579714</Weight>
			<Weight>0.015315946273793018</Weight>
			<Weight>-0.3471344787007046</Weight>
			<Weight>-0.7534423749130367</Weight>
			<Weight>0.8850911259382361</Weight>
			<Weight>0.038842945817384025</Weight>
			<Weight>-0.3889338138270095</Weight>
			<Weight>0.4478947217578466</Weight>
			<Weight>-0.07431809533177157</Weight>
			<Weight>-0.11969842136597687</Weight>
			<Weight>0.045590961617575275</Weight>
			<Weight>-0.113887326126888</Weight>
			<Weight>0.5370385048743355</Weight>
			<Weight>-0.5134996877088889</Weight>
			<Weight>0.2204299772370984</Weight>
			<Weight>-0.17066064314614016</Weight>
			<Weight>0.27305104046079803</Weight>
			<Weight>0.049677338187258197</Weight>
			<Weight>-0.1147973399618536</Weight>
		</Node>
		<Node>
			<Theta>0.19134564442999166</Theta>
			<Weight>0.09284649421035963</Weight>
			<Weight>0.046230171309727945</Weight>
			<Weight>0.0859630840805934</Weight>
			<Weight>-0.35200537914804536</Weight>
			<Weight>0.073384670035342</Weight>
			<Weight>0.4413046829013791</Weight>
			<Weight>0.3388859317935737</Weight>
			<Weight>-0.07707240744373546</Weight>
			<Weight>-0.05000123120325222</Weight>
			<Weight>0.01251534467537513</Weight>
			<Weight>-0.15170990921157732</Weight>
			<Weight>0.068984159540688</Weight>
			<Weight>0.22844486521537935</Weight>
			<Weight>-0.18726130734308122</Weight>
			<Weight>-0.1926839429401564</Weight>
			<Weight>0.134796667881631</Weight>
			<Weight>0.13569548154869335</Weight>
			<Weight>0.013818480832785487</Weight>
			<Weight>0.05075395940451218</Weight>
			<Weight>0.07772807712862465</Weight>
			<Weight>0.002400413080237477</Weight>
			<Weight>0.16009559892817238</Weight>
			<Weight>-0.04103125663433295</Weight>
			<Weight>0.07515764047603998</Weight>
			<Weight>0.10041391035592467</Weight>
			<Weight>-0.5095318668508485</Weight>
			<Weight>-0.21127178042757697</Weight>
		</Node>
		<Node>
			<Theta>0.39489730932390665</Theta>
			<Weight>0.0006149786433001893</Weight>
			<Weight>0.15972680047072457</Weight>
			<Weight>0.13660847139720947</Weight>
			<Weight>-0.9364773267320647</Weight>
			<Weight>0.2174466028964002</Weight>
			<Weight>1.0490374605444064</Weight>
			<Weight>-0.29909990404154146</Weight>
			<Weight>-0.2099956308159954</Weight>
			<Weight>0.35261318048214596</Weight>
			<Weight>0.3654805755548076</Weight>
			<Weight>-0.11218513415579404</Weight>
			<Weight>-0.3858122958227075</Weight>
			<Weight>0.5239002068848185</Weight>
			<Weight>0.21320427140727705</Weight>
			<Weight>-0.5004704328918769</Weight>
			<Weight>0.42694395141108243</Weight>
			<Weight>-0.1533918618675036</Weight>
			<Weight>0.10382170025788821</Weight>
			<Weight>0.07819112577971185</Weight>
			<Weight>-0.00871287477611477</Weight>
			<Weight>0.3754182158259614</Weight>
			<Weight>-0.4236040006299239</Weight>
			<Weight>0.11315846938185044</Weight>
			<Weight>-0.14414043843863247</Weight>
			<Weight>0.22849088604309536</Weight>
			<Weight>-0.3100815411622142</Weight>
			<Weight>0.14347366833913738</Weight>
		</Node>
		<Node>
			<Theta>0.5384257526050437</Theta>
			<Weight>0.06219376391363595</Weight>
			<Weight>-0.7557732527466204</Weight>
			<Weight>0.5216615906825398</Weight>
			<Weight>-0.17315328926099624</Weight>
			<Weight>0.22417790240871663</Weight>
			<Weight>-0.018099094006791112</Weight>
			<Weight>-1.224889209123601</Weight>
			<Weight>-0.5292431234566213</Weight>
			<Weight>-0.1865937768418512</Weight>
			<Weight>-0.10872762047955359</Weight>
			<Weight>-2.5464353121481054</Weight>
			<Weight>-0.6470282497921821</Weight>
			<Weight>2.3776165764788426</Weight>
			<Weight>0.6243096063522489</Weight>
			<Weight>-1.0802007586261684</Weight>
			<Weight>-0.13624241124058387</Weight>
			<Weight>0.3731538885956185</Weight>
			<Weight>0.285538838225007</Weight>
			<Weight>-0.9244742223558652</Weight>
			<Weight>-0.5942125361658112</Weight>
			<Weight>-0.6827866499856244</Weight>
			<Weight>0.3655972505922275</Weight>
			<Weight>0.194208550260272</Weight>
			<Weight>-0.3909133274431527</Weight>
			<Weight>0.022311369354067027</Weight>
			<Weight>-0.3302422642381023</Weight>
			<Weight>1.06793969830792</Weight>
		</Node>
		<Node>
			<Theta>-0.01425630250415335</Theta>
			<Weight>0.09685543757156344</Weight>
			<Weight>-0.024421262516860723</Weight>
			<Weight>-0.11044943564050148</Weight>
			<Weight>0.10018438324081295</Weight>
			<Weight>-0.2440165127944909</Weight>
			<Weight>0.0032552323434453675</Weight>
			<Weight>0.2688912190346591</Weight>
			<Weight>0.010600029397547952</Weight>
			<Weight>-0.04150756594946476</Weight>
			<Weight>-0.06551006998329605</Weight>
			<Weight>0.3879873165853213</Weight>
			<Weight>0.1678378598533635</Weight>
			<Weight>-0.5366489376518098</Weight>
			<Weight>-0.1343421214051456</Weight>
			<Weight>0.0773431018208642</Weight>
			<Weight>0.024032290891170087</Weight>
			<Weight>0.18355816813999906</Weight>
			<Weight>-0.13148544561435327</Weight>
			<Weight>0.08065069770716166</Weight>
			<Weight>0.16943954267267425</Weight>
			<Weight>0.10000859709457469</Weight>
			<Weight>0.2123124967238046</Weight>
			<Weight>0.04331440341339781</Weight>
			<Weight>0.10527712467571475</Weight>
			<Weight>-0.0008376229458586725</Weight>
			<Weight>0.26409278307618966</Weight>
			<Weight>-0.08380586140634975</Weight>
		</Node>
		<Node>
			<Theta>-0.5117553849442412</Theta>
			<Weight>0.022413247506771507</Weight>
			<Weight>0.775437472804019</Weight>
			<Weight>-0.6198445179714962</Weight>
			<Weight>0.09828076629813627</Weight>
			<Weight>-0.4435250652871091</Weight>
			<Weight>0.04246793452015804</Weight>
			<Weight>1.5084181043092164</Weight>
			<Weight>0.4548386003885175</Weight>
			<Weight>0.2847590357986273</Weight>
			<Weight>-0.018095884213688265</Weight>
			<Weight>2.4112866858089306</Weight>
			<Weight>0.5567389290459216</Weight>
			<Weight>-2.173881448022391</Weight>
			<Weight>-0.64171192468538</Weight>
			<Weight>1.127364501816383</Weight>
			<Weight>0.0020780887056765915</Weight>
			<Weight>-0.47511328899847605</Weight>
			<Weight>-0.5569493189468385</Weight>
			<Weight>0.8310032910677309</Weight>
			<Weight>0.6183423142035056</Weight>
			<Weight>0.6545002169045799</Weight>
			<Weight>-0.23374801768546263</Weight>
			<Weight>0.049536881870454595</Weight>
			<Weight>0.10250368297979985</Weight>
			<Weight>-0.023060848829420246</Weight>
			<Weight>0.3432425388407367</Weight>
			<Weight>-1.0505566716035384</Weight>
		</Node>
		<Node>
			<Theta>0.6681515231406921</Theta>
			<Weight>-0.031279322553672925</Weight>
			<Weight>-0.7155019037857501</Weight>
			<Weight>0.5664981175466518</Weight>
			<Weight>-0.24608774632120972</Weight>
			<Weight>0.39115496642468534</Weight>
			<Weight>-0.19961717374819063</Weight>
			<Weight>-1.554538496971211</Weight>
			<Weight>-0.6048283594511904</Weight>
			<Weight>-0.249178525350833</Weight>
			<Weight>0.037289423374408666</Weight>
			<Weight>-2.564159929646946</Weight>
			<Weight>-0.6702954822703312</Weight>
			<Weight>2.2653869127814255</Weight>
			<Weight>0.576014511910107</Weight>
			<Weight>-1.123884607712117</Weight>
			<Weight>-0.12229911784343511</Weight>
			<Weight>0.5660515376762588</Weight>
			<Weight>0.6357710616913413</Weight>
			<Weight>-0.9748595013618571</Weight>
			<Weight>-0.64107637373179</Weight>
			<Weight>-0.8117507396551132</Weight>
			<Weight>0.333483798345156</Weight>
			<Weight>0.008035451461147982</Weight>
			<Weight>-0.07159627113910162</Weight>
			<Weight>0.21316340382026971</Weight>
			<Weight>-0.39292901823276455</Weight>
			<Weight>1.1759326837446094</Weight>
		</Node>
		<Node>
			<Theta>0.5234630656863443</Theta>
			<Weight>-0.18050280347293624</Weight>
			<Weight>0.039203623940274504</Weight>
			<Weight>0.5209503833146276</Weight>
			<Weight>-0.5402384506611347</Weight>
			<Weight>0.05998991272312744</Weight>
			<Weight>0.5810261526555558</Weight>
			<Weight>-0.21830811640375908</Weight>
			<Weight>-0.06829021994596345</Weight>
			<Weight>0.5996179417713037</Weight>
			<Weight>0.802244855586</Weight>
			<Weight>0.647736543475678</Weight>
			<Weight>-0.9116169329980129</Weight>
			<Weight>0.45893019189849565</Weight>
			<Weight>-0.03564224411170369</Weight>
			<Weight>-0.13199151521326247</Weight>
			<Weight>0.13758915578373435</Weight>
			<Weight>-0.4558530157345005</Weight>
			<Weight>0.05107824922134473</Weight>
			<Weight>0.2915411759185597</Weight>
			<Weight>-0.16576814284848848</Weight>
			<Weight>0.35130311762709165</Weight>
			<Weight>-0.5244851829406626</Weight>
			<Weight>0.1017049649252164</Weight>
			<Weight>-0.008683259326068355</Weight>
			<Weight>-0.07899787394907198</Weight>
			<Weight>-0.3672664793557114</Weight>
			<Weight>0.09714527629879374</Weight>
		</Node>
		<Node>
			<Theta>-0.2661403642379741</Theta>
			<Weight>-0.6279469739402023</Weight>
			<Weight>-0.1643569799529748</Weight>
			<Weight>1.1550162610737364</Weight>
			<Weight>1.10661150637683</Weight>
			<Weight>-1.9625480599116936</Weight>
			<Weight>0.9703105294065053</Weight>
			<Weight>-0.4142769745031405</Weight>
			<Weight>0.5973464499555668</Weight>
			<Weight>0.22703508303590894</Weight>
			<Weight>-0.07698921082519518</Weight>
			<Weight>2.686621489178369</Weight>
			<Weight>-0.5829439632130199</Weight>
			<Weight>-0.999992185622705</Weight>
			<Weight>0.5562782307446748</Weight>
			<Weight>-0.6573320676982584</Weight>
			<Weight>0.9781337374809359</Weight>
			<Weight>-0.15405881118843848</Weight>
			<Weight>-1.1866466255586967</Weight>
			<Weight>0.980400302056847</Weight>
			<Weight>-0.756247724297525</Weight>
			<Weight>1.7304884880786398</Weight>
			<Weight>-1.4350942872031525</Weight>
			<Weight>0.16938267377044364</Weight>
			<Weight>-0.059335465167749075</Weight>
			<Weight>0.275745799221868</Weight>
			<Weight>0.26222778401681734</Weight>
			<Weight>-1.3509396123717514</Weight>
		</Node>
		<Node>
			<Theta>0.3352783214547051</Theta>
			<Weight>-0.1614896169516005</Weight>
			<Weight>0.294353269999249</Weight>
			<Weight>-0.01898491766239202</Weight>
			<Weight>-0.6707895507311942</Weight>
			<Weight>0.3541972216456974</Weight>
			<Weight>0.6229578514748643</Weight>
			<Weight>-0.20646692062638747</Weight>
			<Weight>0.017183298045384255</Weight>
			<Weight>0.19047602902547023</Weight>
			<Weight>0.24405955939097373</Weight>
			<Weight>-0.0581656628945159</Weight>
			<Weight>-0.13179790735371189</Weight>
			<Weight>0.3293934505354936</Weight>
			<Weight>0.09209713245367014</Weight>
			<Weight>-0.22671399892006092</Weight>
			<Weight>0.059475184982240185</Weight>
			<Weight>-0.17850893566605797</Weight>
			<Weight>0.08591326199257443</Weight>
			<Weight>0.20647207060719083</Weight>
			<Weight>-0.1179469180434805</Weight>
			<Weight>0.16402202292743773</Weight>
			<Weight>-0.09524859953372271</Weight>
			<Weight>0.25188136878276485</Weight>
			<Weight>-0.10622381124369436</Weight>
			<Weight>0.07668585214490599</Weight>
			<Weight>-0.2817980146454137</Weight>
			<Weight>-0.12318523174952349</Weight>
		</Node>
		<Node>
			<Theta>0.446955790493523</Theta>
			<Weight>-0.09498934158569472</Weight>
			<Weight>0.24724216446964203</Weight>
			<Weight>-0.12079144878380703</Weight>
			<Weight>-0.5046390128785835</Weight>
			<Weight>0.4434434202858785</Weight>
			<Weight>0.42640231183869237</Weight>
			<Weight>0.19101153969566628</Weight>
			<Weight>-0.1674216697322983</Weight>
			<Weight>0.5043888220496812</Weight>
			<Weight>0.580104262935089</Weight>
			<Weight>-0.06828240424640293</Weight>
			<Weight>-0.16664166990696755</Weight>
			<Weight>-0.00600081210526737</Weight>
			<Weight>0.12755104371560955</Weight>
			<Weight>-0.29397914132937486</Weight>
			<Weight>0.16742928436696175</Weight>
			<Weight>-0.03795007766150907</Weight>
			<Weight>-0.09238525678522709</Weight>
			<Weight>0.17386200716889155</Weight>
			<Weight>-0.39511904250452295</Weight>
			<Weight>-0.08613581727114555</Weight>
			<Weight>-0.003496664333838851</Weight>
			<Weight>0.2530969257357253</Weight>
			<Weight>-0.029626296715218072</Weight>
			<Weight>-0.019990269701838363</Weight>
			<Weight>-0.5799474555891578</Weight>
			<Weight>0.020003565184834017</Weight>
		</Node>
		<Node>
			<Theta>-0.2999026735122588</Theta>
			<Weight>-0.024206417764336453</Weight>
			<Weight>0.4999823064444955</Weight>
			<Weight>-0.2374645895298384</Weight>
			<Weight>0.288330858588412</Weight>
			<Weight>-0.20870742256069547</Weight>
			<Weight>-0.1864171112496968</Weight>
			<Weight>0.9181927313988014</Weight>
			<Weight>0.28778293490039913</Weight>
			<Weight>0.18671244536789702</Weight>
			<Weight>0.15983528612953476</Weight>
			<Weight>2.1093246808471546</Weight>
			<Weight>0.3072174247495357</Weight>
			<Weight>-1.8476692106189696</Weight>
			<Weight>-0.19114587460346327</Weight>
			<Weight>0.9886650777926432</Weight>
			<Weight>0.2370957224559291</Weight>
			<Weight>-0.24985974939059502</Weight>
			<Weight>-0.29928278556306853</Weight>
			<Weight>0.6140356105145979</Weight>
			<Weight>0.4387465576081327</Weight>
			<Weight>0.5310742208810044</Weight>
			<Weight>-0.35191260884316317</Weight>
			<Weight>-0.337472907945165</Weight>
			<Weight>0.344693458521406</Weight>
			<Weight>-0.2549467362658072</Weight>
			<Weight>0.26943688582383557</Weight>
			<Weight>-0.9257763729089414</Weight>
		</Node>
		<Node>
			<Theta>-0.0433836417963249</Theta>
			<Weight>-0.14447010892209333</Weight>
			<Weight>-0.069772672015187</Weight>
			<Weight>0.42291308895191226</Weight>
			<Weight>0.457444886055933</Weight>
			<Weight>-0.7097781335032963</Weight>
			<Weight>0.5662852084586412</Weight>
			<Weight>-0.29985337909503523</Weight>
			<Weight>0.21524357443301056</Weight>
			<Weight>-0.06431188899416564</Weight>
			<Weight>0.08714125599347629</Weight>
			<Weight>1.0520288551170922</Weight>
			<Weight>-0.3337851815518046</Weight>
			<Weight>-0.12843539996706016</Weight>
			<Weight>0.23468468476454868</Weight>
			<Weight>-0.23822122491298878</Weight>
			<Weight>0.4104857936702651</Weight>
			<Weight>-0.18992488223093956</Weight>
			<Weight>-0.5940485734621502</Weight>
			<Weight>0.3649808648533768</Weight>
			<Weight>-0.41510883728389736</Weight>
			<Weight>0.7660390102766067</Weight>
			<Weight>-0.5317478135510382</Weight>
			<Weight>0.11412570241505374</Weight>
			<Weight>0.16767394630743385</Weight>
			<Weight>0.13102818394228796</Weight>
			<Weight>0.15392675231865144</Weight>
			<Weight>-0.7376359479640631</Weight>
		</Node>
		<Node>
			<Theta>0.23878558377863293</Theta>
			<Weight>0.641251252721909</Weight>
			<Weight>0.082541668854592</Weight>
			<Weight>-1.1371286843772617</Weight>
			<Weight>-0.9857145896877086</Weight>
			<Weight>1.7453882044547906</Weight>
			<Weight>-0.6857459056044406</Weight>
			<Weight>0.30130843162551196</Weight>
			<Weight>-0.7230963470113658</Weight>
			<Weight>-0.15531495426618136</Weight>
			<Weight>-0.12277396448792889</Weight>
			<Weight>-2.432335278977976</Weight>
			<Weight>0.5152376524305867</Weight>
			<Weight>0.6865032092693027</Weight>
			<Weight>-0.4712141948000556</Weight>
			<Weight>0.6716365558199259</Weight>
			<Weight>-0.9882680019002285</Weight>
			<Weight>0.4038491220464562</Weight>
			<Weight>0.8950925150983199</Weight>
			<Weight>-1.0734508593129053</Weight>
			<Weight>0.5384096201549217</Weight>
			<Weight>-1.8462756673491516</Weight>
			<Weight>1.4699981454935174</Weight>
			<Weight>-0.2838038923797203</Weight>
			<Weight>0.0202063487397694</Weight>
			<Weight>-0.09833962518997019</Weight>
			<Weight>-0.17178135318614715</Weight>
			<Weight>1.1762669489871087</Weight>
		</Node>
	</Layer>
	<Layer>
		<Node>
			<Theta>-0.36255530129340097</Theta>
			<Weight>1.387323958164502</Weight>
			<Weight>1.1567761887363113</Weight>
			<Weight>1.0168059588619358</Weight>
			<Weight>1.4799016803938512</Weight>
			<Weight>2.6447273669101485</Weight>
			<Weight>-1.0687521297929334</Weight>
			<Weight>-3.1111592034976105</Weight>
			<Weight>2.8033549971481557</Weight>
			<Weight>0.5593644639308528</Weight>
			<Weight>-1.5908837919509462</Weight>
			<Weight>0.917182876746708</Weight>
			<Weight>1.3146723557903262</Weight>
			<Weight>-2.6322352210925</Weight>
			<Weight>-0.6034888404553551</Weight>
			<Weight>0.8408099546257093</Weight>
		</Node>
		<Node>
			<Theta>-1.2354621406647885</Theta>
			<Weight>-0.3798609624399061</Weight>
			<Weight>-0.06470514907045011</Weight>
			<Weight>-0.41899240855246134</Weight>
			<Weight>-0.2658031219110817</Weight>
			<Weight>-2.1372765981052675</Weight>
			<Weight>-0.5274553881825866</Weight>
			<Weight>1.1164339178731069</Weight>
			<Weight>-2.2705881118106443</Weight>
			<Weight>0.5026861109400474</Weight>
			<Weight>3.8383130114176085</Weight>
			<Weight>-0.22205911803832398</Weight>
			<Weight>-0.10382863322829244</Weight>
			<Weight>1.1461479179519323</Weight>
			<Weight>1.360529904624787</Weight>
			<Weight>-4.350719048352176</Weight>
		</Node>
		<Node>
			<Theta>-0.588954081424073</Theta>
			<Weight>-0.7942278993528278</Weight>
			<Weight>-1.4536544572158834</Weight>
			<Weight>-0.11142338607910374</Weight>
			<Weight>-1.498207869098553</Weight>
			<Weight>-3.042627496847106</Weight>
			<Weight>-0.13871788636256996</Weight>
			<Weight>2.5268515545466466</Weight>
			<Weight>-3.086375450598724</Weight>
			<Weight>-1.7370045529274503</Weight>
			<Weight>-4.080135263934631</Weight>
			<Weight>-0.8551440146901323</Weight>
			<Weight>-1.1746348137939342</Weight>
			<Weight>1.5527283240311693</Weight>
			<Weight>-1.3787574526563158</Weight>
			<Weight>3.2016642894541008</Weight>
		</Node>
	</Layer>
</NeuralNetwork>
